
#include <eml_net.h>
static const float Trained2_layer_0_biases[56] = { -6.666310f, -8.022680f, -6.218384f, -6.494024f, -4.806413f, -7.698214f, -8.501106f, -3.263407f, -5.907579f, -7.774625f, -3.004312f, -6.967973f, -6.056225f, -4.370160f, 0.498003f, -2.500607f, -0.006346f, -11.317861f, -10.138964f, -2.082137f, -7.437997f, -2.728504f, -8.768291f, -7.589418f, -9.804408f, -9.485509f, -4.016376f, -4.745828f, -9.819924f, -7.222371f, -4.452187f, -3.580099f, -0.523434f, -16.211090f, -5.560833f, -16.662336f, -4.465022f, -10.767745f, -11.972307f, -7.815596f, -2.827156f, -14.318601f, -5.187344f, -2.540472f, -0.778503f, 1.097142f, -6.773670f, -2.604210f, -5.635512f, -1.218800f, 1.528999f, -6.663936f, -9.034392f, -5.764023f, -4.097211f, -6.644875f };
static const float Trained2_layer_0_weights[16800] = { 10.915553f, 3.812138f, -11.436874f, 12.181045f, -5.673931f, 6.744169f, 5.881207f, -4.397334f, 1.449899f, -19.540237f, 3.063464f, 2.429021f, 3.714671f, -2.952605f, -8.436862f, 3.830858f, 0.428073f, 3.199825f, 3.193316f, -2.260553f, 9.494715f, -5.530441f, -8.768745f, 4.334263f, 3.509738f, 3.485188f, -14.293324f, 10.587808f, -0.905304f, 1.269674f, 3.178187f, -0.963112f, -7.938356f, -3.635541f, 9.642730f, 1.312829f, 0.441838f, 4.588530f, -8.552909f, -17.240046f, 2.088888f, 2.329767f, -0.522941f, -11.602052f, -0.792171f, -15.536812f, 4.506857f, -6.130315f, 3.157228f, 0.537980f, -19.288002f, 1.486843f, 1.952485f, -4.485888f, 11.151287f, 4.024463f, -2.900347f, -0.758232f, -3.414436f, -5.850593f, 6.157587f, -4.309039f, -2.318298f, 7.126002f, 0.391124f, 6.112697f, -0.563618f, -1.498417f, -4.616717f, 0.429842f, -1.440516f, -4.189122f, -4.311312f, -6.243576f, -3.710857f, -0.588147f, -1.696502f, -1.800808f, -0.038679f, -4.980046f, -1.779989f, -5.964214f, 2.698680f, -2.873801f, -0.583239f, -3.606502f, -1.593517f, 1.096669f, 5.522847f, 0.108240f, -8.093290f, -4.477177f, -2.911061f, -1.949027f, 2.436998f, -3.226677f, 4.871817f, -2.059465f, -2.896066f, 1.990976f, 0.933650f, 1.817341f, -3.454464f, 1.111197f, -4.043549f, 5.507728f, 10.358006f, -0.891676f, 1.125048f, -0.260352f, -1.613259f, -3.275847f, -1.216770f, 0.331032f, -15.859298f, 2.043715f, 2.917253f, 3.679735f, 2.041031f, -11.055732f, 0.247112f, -7.437059f, -3.527193f, 1.408575f, 3.047999f, -3.889641f, -3.119146f, 1.666884f, -2.664847f, 3.780152f, 1.214360f, -5.988111f, -3.376383f, -1.297897f, -2.004596f, 1.689072f, 1.895286f, 2.202222f, -3.436072f, 1.966423f, 2.685454f, 6.463379f, 0.817997f, -2.697374f, 3.837178f, -2.230826f, 2.204154f, -0.045379f, 2.148392f, 2.051151f, -4.036227f, -4.473971f, 5.732409f, 1.758415f, -4.175327f, -1.811517f, -7.294116f, 15.883447f, -0.816054f, 6.630472f, 1.136849f, 4.364893f, -8.362940f, -0.550988f, -0.665557f, -3.735906f, 0.009291f, 3.171702f, -0.051531f, -0.277706f, -0.261269f, -0.283969f, 0.610576f, 0.187041f, -0.230575f, -0.699137f, -1.333144f, 0.137215f, 0.301820f, -0.322461f, 0.040230f, -2.076250f, 0.451956f, 0.029481f, -0.394644f, -0.058837f, -0.635772f, -0.201963f, -0.074208f, -0.417798f, -0.001148f, -0.245379f, -0.084035f, 0.204657f, -0.118919f, 0.034770f, -0.203841f, 0.387910f, -0.535554f, -0.035681f, -0.066158f, -0.008816f, 0.370675f, -0.040597f, -0.038172f, 0.013489f, 0.119696f, -0.082960f, 0.151205f, -0.275108f, 0.192601f, 0.030223f, -0.051537f, -0.061316f, 0.020701f, -0.189986f, -0.043553f, -0.147370f, 1.377052f, -0.078783f, -0.293055f, -0.308276f, 0.334529f, -0.299707f, 0.039004f, 0.194341f, -0.017982f, 0.092175f, -1.131771f, -0.006164f, 0.305466f, -0.078193f, 0.113444f, 0.018082f, 0.035346f, 0.035527f, 0.091698f, 0.746538f, 0.879795f, 0.075248f, -0.226964f, 0.215606f, 0.207770f, 0.332983f, 0.012138f, 0.469161f, -0.149667f, -0.019458f, 0.227062f, 0.232028f, -0.077749f, -0.171464f, 0.083043f, 0.032196f, 0.198467f, 0.142578f, -0.068938f, -0.017475f, -0.003819f, 0.088073f, 0.180919f, 0.162900f, -0.091282f, -0.062220f, 0.017003f, 0.190598f, -0.761405f, -0.034300f, -0.098346f, 0.072973f, -0.395137f, 0.195781f, 0.082873f, 0.099940f, -0.656595f, 0.099674f, 0.471477f, 1.738719f, -0.056241f, 0.087121f, 0.066663f, 0.330265f, 0.094602f, 0.270338f, 0.173009f, -0.204882f, 0.006824f, -0.007173f, 0.597118f, 0.031561f, 1.393361f, 0.239229f, -1.102942f, -0.310031f, -0.611097f, -0.614919f, 1.507858f, 0.753996f, -0.021791f, 0.238109f, 0.113172f, 0.258309f, 0.108399f, -0.118876f, 0.037912f, -0.501783f, 0.049777f, -0.138534f, -0.069075f, 0.162064f, -0.194126f, -0.216071f, -0.331426f, 0.090023f, -0.008105f, 0.089030f, -0.091898f, -0.075487f, 0.314829f, 0.158958f, -0.221497f, 0.434202f, -0.234867f, -0.109963f, -0.316801f, -0.198245f, 0.461794f, 0.906482f, 0.524686f, -0.181508f, 0.385319f, 0.163205f, -0.248786f, -1.773964f, 0.219269f, -0.133180f, 7.481224f, 1.328291f, -10.574872f, 9.148969f, -2.464862f, 5.176315f, 3.782447f, -1.988451f, 1.292343f, -14.283345f, 2.013691f, 0.955634f, 3.448659f, -2.553576f, -6.779598f, 3.652738f, -1.266970f, 1.562869f, 1.763807f, -1.847928f, 5.805186f, -6.093079f, -7.652637f, 2.848377f, 1.706219f, 3.185763f, -11.608533f, 7.238979f, -0.941583f, 0.938833f, 1.563760f, -0.497815f, -5.944434f, -2.754854f, 6.127761f, 1.772282f, -0.313524f, 3.063492f, -7.002050f, -14.487897f, 1.449174f, 1.360657f, -0.964469f, -8.334664f, -1.369250f, -12.133850f, 1.751186f, -3.254736f, 0.970305f, 0.125067f, -13.505015f, 1.456668f, 1.789824f, -3.484832f, 6.714419f, 2.299390f, -1.733895f, 0.881578f, -4.416762f, -4.123286f, 4.674574f, -3.293751f, -0.954654f, 5.667044f, -1.244624f, 5.955146f, -0.398165f, -1.515460f, -3.311795f, -0.245496f, -2.110890f, -1.495010f, -4.777501f, -6.438405f, -1.424468f, -0.756662f, -0.584947f, -2.272211f, 0.090021f, -3.461559f, -0.432920f, -5.173317f, 2.325078f, -1.983755f, 0.000971f, -3.693610f, -0.339018f, 0.567779f, 3.679503f, 0.232653f, -5.387871f, -3.903494f, -1.754734f, -0.828185f, 1.433964f, -4.365875f, 4.778921f, -0.684157f, -1.899748f, 1.932079f, 1.457407f, 0.364020f, -1.871596f, 0.152366f, -2.362258f, 5.614250f, 8.697428f, -0.580163f, 1.477578f, -0.955129f, 0.191713f, -2.042533f, -0.237993f, 0.184324f, -14.997517f, 2.919410f, 1.940063f, 3.515121f, 1.572555f, -10.740402f, 0.600228f, -8.181041f, -3.057073f, 0.902703f, 3.374928f, -3.366251f, -2.514516f, 2.659181f, -2.200688f, 2.420233f, 0.955172f, -5.551479f, -3.313348f, -2.091786f, -2.140574f, 2.235645f, 1.964262f, 2.215304f, -3.654244f, 2.542818f, 2.203765f, 6.092405f, 1.002257f, -2.014596f, 3.230552f, -0.798276f, 1.453756f, 0.220652f, 1.744241f, 3.977610f, -3.659982f, -3.334827f, 5.215719f, 1.371233f, -3.720097f, -1.936018f, -7.541162f, 14.384730f, -0.542469f, 5.302962f, 1.551711f, 2.385837f, -7.004687f, -0.314480f, -0.020681f, -3.952549f, 0.354685f, 2.552371f, -0.033887f, 0.246129f, 0.217689f, -0.057226f, 0.311624f, -0.112035f, -0.154689f, 0.309575f, -0.583214f, 0.234627f, 0.048019f, -0.682191f, -0.098952f, -1.035045f, 0.599691f, 0.174525f, -0.082094f, 0.462967f, -0.126682f, -0.276690f, 0.128361f, 0.147024f, -0.078481f, 0.178981f, -0.056768f, 0.038749f, 0.082837f, 0.005837f, -0.018107f, 0.065685f, -0.476669f, 0.097699f, -0.082592f, -0.015723f, 0.332346f, -0.032006f, 0.142887f, -0.078508f, 0.076703f, 0.133753f, 0.231175f, -0.026739f, 0.695549f, -0.050008f, -0.129585f, 0.083214f, 0.184949f, 0.492184f, -0.050989f, -0.103175f, -0.826682f, -0.156795f, 0.206962f, -0.256096f, 0.074664f, 0.080525f, 0.011233f, 0.097314f, 0.204420f, 0.161680f, 0.194332f, -0.042924f, 0.021506f, -0.112371f, 0.081900f, 0.028113f, -0.062425f, 0.419191f, 0.420098f, 0.588981f, 1.253164f, -0.007277f, 0.037902f, -0.173722f, 0.093421f, 0.129323f, 0.005619f, 0.168812f, -0.089568f, 0.065737f, 0.167703f, 0.046729f, -0.076929f, -0.006098f, -0.022514f, 0.145676f, 0.143956f, 0.081298f, 0.017645f, -0.084604f, -0.139729f, 0.056085f, 0.020285f, 0.128149f, -0.003244f, 0.012406f, -0.004705f, 0.041545f, -0.598074f, -0.002075f, 0.038719f, 0.123884f, -0.180766f, -0.070784f, -0.059751f, 0.170186f, -0.005145f, 0.112746f, -0.112542f, -0.636721f, 0.042180f, 0.010875f, 0.083758f, 0.191826f, 0.917823f, -0.099061f, 0.197067f, -0.290670f, 0.081650f, -0.367609f, -0.088416f, 0.167248f, -0.520544f, -0.138335f, -0.144391f, -0.151897f, -0.671765f, -0.396452f, 0.858115f, 0.121243f, 0.213125f, 0.057518f, 0.277879f, 0.287230f, 0.012472f, 0.664531f, 0.170569f, -0.284165f, 0.058953f, -0.478932f, -0.118614f, -0.053507f, -0.149930f, -0.255621f, -0.483469f, 0.012251f, -0.436531f, -0.201857f, 0.099046f, -0.038893f, 0.047911f, 0.003132f, -0.015702f, 0.425947f, -0.833576f, -0.222143f, -0.250432f, -0.169796f, 0.254788f, 0.820717f, -0.166971f, 0.104375f, 0.418279f, -0.019884f, 0.175066f, -0.311907f, 0.010352f, 0.079984f, 6.155856f, 0.410772f, -11.090987f, 7.143618f, -1.772536f, 4.335355f, 3.171496f, -1.743201f, 2.227485f, -11.919091f, 2.260005f, 1.286627f, 3.590211f, -1.825900f, -6.685134f, 3.382921f, -1.811834f, 0.138240f, 1.210012f, -1.530559f, 4.004489f, -4.832825f, -7.497884f, 3.541267f, 1.976797f, 3.307440f, -10.949903f, 5.724448f, -0.028769f, 0.434876f, 0.307492f, -0.280467f, -4.987628f, -1.397844f, 3.495813f, 1.418254f, -0.376545f, 2.645734f, -5.017553f, -13.204366f, 2.135070f, 2.689553f, -1.210611f, -7.366669f, -1.548986f, -10.240278f, 1.544729f, -2.358076f, 0.184817f, -0.266067f, -10.771376f, 0.612947f, 1.191284f, -4.429601f, 5.221467f, 1.833796f, -1.517123f, 1.170898f, -3.648847f, -2.669687f, 4.474359f, -2.192114f, -1.769432f, 5.362723f, -1.866578f, 5.410526f, -0.684643f, -1.962659f, -3.930568f, 0.432753f, -1.350879f, -0.714108f, -3.488431f, -8.163223f, -0.454333f, -1.027091f, -0.907636f, -2.256406f, 0.549072f, -3.621635f, -1.448649f, -4.052002f, 2.864817f, -1.451561f, 0.158427f, -4.376704f, -0.396564f, 0.212203f, 4.399845f, 0.964565f, -3.278583f, -3.853692f, -1.887981f, -2.558663f, 2.116416f, -4.324478f, 5.069656f, -1.218565f, -1.761016f, 3.218832f, 2.142301f, 0.950754f, -1.424347f, -0.291099f, -3.662548f, 6.337327f, 7.930732f, -0.714128f, 0.912745f, 0.123723f, 0.340391f, -2.504283f, 0.562674f, 0.981163f, -14.107495f, 3.782398f, 1.352424f, 2.971030f, 1.623839f, -10.158697f, -0.641297f, -8.288912f, -2.819945f, 0.410949f, 3.216472f, -3.025996f, -0.761988f, 1.069290f, -2.055461f, 1.880201f, 0.244964f, -5.026395f, -2.272123f, -2.091317f, -1.132693f, 1.361586f, 2.531348f, 1.483996f, -2.304274f, 1.972398f, 1.655621f, 4.064798f, 0.612829f, -1.201912f, 3.622790f, -0.514381f, 0.817490f, 0.069505f, 0.843953f, 2.484848f, -2.484849f, -2.752909f, 4.501816f, 0.420162f, -2.942099f, -1.101373f, -8.720008f, 13.679613f, -1.010759f, 4.722718f, 1.777380f, 3.195648f, -6.614874f, -0.444083f, -0.247245f, -3.878925f, 0.910987f, 2.382840f, -0.017497f, -0.233478f, -0.208610f, -0.040955f, 0.150162f, -0.121144f, -0.203742f, 0.127748f, 0.256758f, 0.075782f, -0.095283f, -0.137925f, 0.010072f, -0.662772f, -0.654023f, -0.264497f, -0.096608f, -0.249594f, -0.332059f, -0.024916f, -0.154111f, -0.144658f, -0.046832f, -0.375756f, -0.262391f, 0.218429f, -0.012982f, 0.005606f, -0.070011f, 0.092756f, -0.383637f, 0.197841f, -0.052843f, 0.064607f, 0.395179f, -0.001069f, -0.124716f, -0.153131f, 0.115672f, 0.028778f, -0.035131f, -0.291734f, 0.386104f, 0.005903f, -0.031050f, 0.028206f, 0.126717f, -0.190737f, 0.063753f, 0.307845f, -0.294088f, -0.091686f, 0.143853f, 0.009792f, 0.153715f, -0.267307f, 0.029208f, 0.003247f, 0.037120f, 0.088810f, 0.906694f, 0.046721f, -0.109729f, 0.053341f, -0.235136f, -0.049450f, 0.117295f, 0.172827f, 0.297063f, -0.095829f, 1.425281f, -0.042568f, 0.157745f, 0.023027f, 0.001069f, 0.037036f, 0.119913f, 0.123428f, -0.004936f, 0.031409f, 0.233693f, 0.102959f, 0.040357f, -0.124256f, -0.020238f, -0.001887f, 0.008173f, 0.013270f, 0.050981f, -0.049632f, 0.250503f, -0.002756f, 0.038803f, -0.025823f, -0.106728f, 0.052475f, 0.073255f, 0.108708f, -0.312146f, -0.065557f, 0.059920f, 0.041234f, -0.423199f, 0.114022f, -0.125529f, 0.042978f, -0.444481f, -0.235013f, -0.182677f, -0.697409f, 0.138069f, 0.067417f, 0.049242f, 0.105594f, 0.293322f, 0.186467f, -0.921480f, 0.085239f, 0.195944f, -0.441913f, -0.696360f, -0.022250f, -0.526347f, 0.098090f, -0.097302f, 0.054148f, 0.574711f, 0.908584f, -0.189113f, -0.521205f, 0.728832f, -0.975820f, 0.053857f, -0.287949f, -0.022166f, -0.172785f, 0.343955f, 0.108166f, 0.063333f, -0.198036f, 0.029082f, -0.015438f, 0.105330f, 0.078340f, -0.210984f, -0.041842f, -0.138612f, -0.097749f, -0.146476f, -0.052594f, -0.132023f, -0.070803f, 0.198570f, 0.689780f, 0.320602f, -0.119350f, 0.309220f, -0.019357f, -0.515293f, 0.394682f, 0.437576f, 0.673872f, 0.162564f, 0.071138f, -0.172619f, 1.053154f, 0.036315f, -0.151523f, 5.134998f, -0.917511f, -10.838893f, 4.898950f, -1.312721f, 4.415723f, 3.386252f, -1.184502f, 2.720477f, -8.891643f, 0.340240f, 1.657865f, 3.757362f, -1.405650f, -7.413537f, 2.165251f, -2.416056f, -0.504365f, 0.976479f, -2.447982f, 2.548141f, -6.440988f, -6.969227f, 3.651314f, 2.805249f, 2.351588f, -8.893169f, 4.398488f, -0.370010f, 0.044411f, 0.154007f, 0.399345f, -4.654800f, -0.153897f, 1.702465f, 2.032043f, -1.341908f, 2.697554f, -3.397228f, -12.028651f, 1.807622f, 3.058210f, -1.534717f, -5.713650f, -2.343784f, -7.343228f, 1.540243f, -1.498577f, -0.492577f, -0.049635f, -8.462926f, 0.573387f, 1.506134f, -4.479401f, 4.122953f, 2.043978f, -1.007737f, 2.136544f, -2.880913f, -1.757870f, 5.034616f, -2.948203f, -2.580603f, 6.016150f, -2.787938f, 3.747184f, 0.886780f, -2.325384f, -3.893985f, 0.249997f, -0.015140f, 0.211952f, -3.279545f, -7.590000f, -0.674232f, -0.510340f, -0.365049f, -2.149585f, -0.037648f, -4.319707f, -2.117262f, -3.506767f, 2.402729f, -1.348561f, -0.244903f, -4.854549f, -0.045350f, 0.201090f, 4.731122f, 0.074222f, -2.902972f, -2.843538f, -2.606225f, -2.601870f, 1.241899f, -4.773612f, 3.873651f, -1.222625f, -1.594155f, 2.214471f, 3.125511f, 1.082767f, -1.592236f, -0.754637f, -3.621750f, 6.052155f, 7.164273f, -0.215457f, 1.188269f, 1.008217f, 0.036023f, -3.634913f, 0.526126f, 1.365732f, -13.122158f, 3.704605f, 1.345888f, 2.999848f, 2.382279f, -9.951754f, 0.081971f, -7.040450f, -2.436863f, 0.318330f, 2.971474f, -3.544571f, -1.304899f, -1.035804f, -2.785081f, -0.112879f, 0.129729f, -5.043308f, -0.726552f, -2.497770f, -1.864324f, 0.952910f, 2.281856f, 0.248435f, -1.522413f, 2.345376f, 1.908796f, 4.372149f, 0.450654f, -1.332778f, 5.115176f, 0.180882f, 1.180353f, 0.904439f, -0.262684f, 2.869399f, -1.622889f, -2.693249f, 4.235467f, 0.060547f, -3.084359f, -1.610434f, -9.284839f, 12.350717f, -1.017863f, 4.460729f, 2.850331f, 4.274099f, -6.639619f, 0.636866f, 0.316971f, -4.280780f, 1.084573f, 2.274304f, -0.051705f, 0.003395f, 0.225410f, 0.035621f, 0.012609f, -0.040719f, 0.082764f, -0.078827f, 0.208786f, -0.096989f, -0.335302f, 0.954186f, 0.113392f, -0.440062f, -0.122432f, 0.222750f, 0.244802f, -0.376155f, -0.234398f, 0.012984f, 0.037354f, 0.068435f, -0.020021f, -0.053114f, -0.019628f, -0.435133f, -0.078594f, -0.000439f, -0.067033f, 0.044511f, -0.365872f, -0.338709f, -0.010353f, 0.027760f, -0.457633f, 0.030653f, 0.063811f, 0.089604f, 0.013945f, -0.099635f, 0.056977f, 0.235478f, 0.302814f, 0.036656f, 0.071089f, -0.004949f, -0.211435f, -0.020126f, 0.056936f, 0.157395f, 0.002351f, 0.088724f, -0.016914f, 0.070518f, -0.099363f, -0.007678f, 0.018297f, 0.107532f, 0.189018f, -0.090184f, 0.657484f, -0.021629f, -0.090905f, -0.113847f, 0.086769f, 0.178913f, -0.266441f, -0.071406f, 0.028323f, 0.643186f, 1.331280f, 0.027452f, -0.095590f, 0.027055f, -0.040253f, 0.245753f, 0.018509f, 0.254947f, 0.007246f, 0.010019f, -0.123518f, -0.324682f, 0.013833f, -0.095359f, -0.022734f, 0.032123f, -0.211700f, 0.187240f, 0.102103f, 0.065920f, 0.023662f, -0.006360f, 0.055380f, -0.006450f, -0.021172f, 0.037551f, 0.016155f, 0.089911f, 0.372779f, 0.027285f, 0.019782f, 0.073507f, -0.359591f, -0.188993f, -0.217567f, 0.036868f, 0.373868f, -0.156361f, -0.031565f, -1.545808f, 0.194195f, 0.034427f, -0.014372f, -0.136799f, 0.179776f, -0.066514f, 0.222909f, 0.147088f, -0.060688f, 0.158335f, -0.294236f, 0.102048f, 0.559042f, -1.687500f, 0.076461f, 0.121001f, 0.543344f, 0.624058f, 0.236382f, 0.397079f, -0.009724f, -1.332198f, -0.084188f, 0.012373f, 0.122893f, -0.240193f, 0.059077f, 0.103260f, -0.089984f, -0.383570f, 0.111043f, 0.403534f, -0.090121f, -0.233356f, -0.209107f, 0.070787f, 0.234867f, -0.093443f, 0.127328f, 0.031004f, 0.059589f, -0.045526f, 0.028498f, -0.024127f, 0.142512f, 0.108267f, 0.017024f, -0.089930f, 0.166993f, 0.504457f, 0.324202f, -0.141532f, -1.694434f, -0.123739f, 0.504273f, 1.677628f, 0.248525f, -0.109419f, 5.027118f, -1.029281f, -10.386408f, 4.435206f, -1.129840f, 4.539195f, 2.901917f, -0.125809f, 1.696316f, -7.652200f, -0.740833f, 1.180193f, 3.024382f, -1.185703f, -8.168858f, 1.302722f, -3.946935f, 0.616239f, -0.328243f, -2.318601f, 1.682129f, -7.116143f, -6.168252f, 3.883239f, 3.159744f, 2.069832f, -7.123640f, 3.488084f, 0.541684f, 0.158672f, 0.269184f, 0.264901f, -4.638631f, 1.537881f, 0.439355f, 2.110501f, -1.227921f, 2.479807f, -1.928469f, -10.746262f, 1.581100f, 2.169186f, -1.316693f, -4.584947f, -2.681475f, -5.576348f, 0.625670f, -1.659448f, -0.692979f, -0.438879f, -7.949265f, 0.946404f, 1.709855f, -4.158959f, 3.373402f, 2.030025f, -1.933397f, 1.981719f, -2.223113f, -1.876927f, 5.231257f, -3.129373f, -3.353696f, 6.241874f, -2.784388f, 1.893478f, 1.292716f, -2.799295f, -4.161289f, 0.593321f, 0.580440f, -0.704945f, -3.165005f, -7.848598f, -0.842837f, -0.408258f, -0.223339f, -1.600350f, 0.126590f, -5.038625f, -3.061943f, -2.382777f, 0.941431f, -0.799869f, -1.129865f, -5.124477f, -0.207442f, 0.577118f, 6.333587f, -0.769784f, -2.611129f, -3.574801f, -3.278215f, -2.941072f, 1.334997f, -5.120188f, 3.098219f, -1.405484f, -1.697825f, 1.448595f, 3.609290f, 1.445083f, -2.284406f, -0.327745f, -4.735600f, 7.339777f, 6.643100f, -0.913722f, 0.104757f, 1.367838f, 0.098812f, -3.871484f, 0.542529f, 1.108850f, -11.594907f, 3.408392f, 1.248615f, 2.159163f, 2.280506f, -8.930858f, -0.440143f, -5.186502f, -2.003140f, 0.218605f, 2.189215f, -2.912313f, -0.907174f, -2.512671f, -1.669450f, -0.138044f, 0.287007f, -4.385006f, -0.492782f, -1.730830f, -1.448664f, 1.201803f, 2.362463f, -0.827781f, -1.315277f, 1.369771f, 2.586908f, 5.011906f, 0.401087f, -0.755755f, 5.748208f, 0.226436f, 0.648889f, 1.042190f, -0.544930f, 2.249384f, -0.612907f, -1.700692f, 3.162564f, -0.574436f, -2.528400f, -0.609501f, -9.859614f, 10.224040f, -1.626738f, 4.939725f, 2.492868f, 4.101908f, -5.953776f, 0.918847f, 0.171162f, -3.416874f, 1.584847f, 1.540592f, -0.040679f, 0.146607f, -0.258035f, -0.114553f, -0.268949f, -0.142779f, 0.214705f, 0.146815f, 0.346372f, -0.012397f, -0.064292f, -0.355242f, -0.082748f, 0.013827f, 0.278681f, 0.430013f, -0.160628f, -0.023202f, 0.006613f, 0.165312f, 0.073736f, 0.011213f, -0.079173f, 0.523959f, 0.235331f, -0.323727f, -0.064403f, -0.081518f, 0.063678f, -0.358733f, -0.340060f, -0.405297f, 0.140501f, -0.041781f, -0.081494f, -0.208649f, -0.089238f, -0.010137f, -0.013348f, 0.082301f, -0.116116f, 0.092914f, -0.317789f, 0.040300f, 0.071217f, -0.055074f, -0.638581f, -0.414614f, 0.299270f, -0.262945f, -0.088195f, -0.249862f, -0.330255f, 0.059841f, 0.093032f, -0.075242f, 0.007864f, 0.070027f, -0.082484f, 0.095460f, -0.143715f, -0.058049f, -0.074448f, 0.230833f, -0.080379f, -0.024608f, -0.060839f, -0.455858f, -0.069191f, -0.214475f, -0.327421f, -0.305960f, 0.814010f, -0.016842f, 0.112684f, 0.200858f, 0.100442f, 0.140639f, 0.031185f, -0.119574f, 0.018394f, -0.030809f, 0.079197f, 0.009694f, 0.028661f, 0.097635f, 0.035152f, 0.009119f, 0.048603f, 0.030238f, 0.225006f, -0.008041f, 0.127023f, 0.047313f, 0.003612f, 0.062687f, -0.044257f, -0.282522f, 0.420023f, 0.076009f, 0.130389f, 0.037548f, -0.160852f, 0.040395f, -0.320836f, 0.102558f, -0.396970f, 0.051649f, 0.380032f, -0.905112f, -0.104554f, -0.050854f, 0.008489f, -0.009337f, -0.384639f, -0.146300f, 0.339865f, 0.050319f, -0.297142f, 0.277531f, 0.143860f, -0.067565f, -0.119718f, 0.176954f, -0.140666f, -0.867548f, -0.661693f, -0.124398f, 0.154833f, -0.462597f, -0.128532f, -0.482153f, -0.020895f, -0.226700f, 0.170668f, 0.280184f, 0.111242f, -0.010445f, -0.070283f, -0.374881f, 0.084024f, -0.151643f, -0.347502f, -0.053333f, 0.017115f, 0.102960f, -0.130574f, -0.158913f, 0.034445f, 0.037931f, -0.064579f, 0.051892f, -0.015146f, 0.400629f, -0.181470f, 0.113641f, -0.048605f, 0.239354f, -0.179001f, -1.023943f, 0.091252f, 0.455426f, -1.339287f, -0.193238f, -0.479024f, 2.155646f, -0.586052f, -0.293401f, 4.298190f, -1.850152f, -10.022423f, 4.439951f, -1.157840f, 4.486662f, 2.905422f, 0.347302f, 1.184053f, -7.047351f, -0.547045f, 1.573700f, 2.476080f, -1.176395f, -7.886890f, 1.997087f, -5.119881f, 1.041004f, -1.063028f, -2.886894f, 1.523155f, -7.437025f, -5.736424f, 3.753546f, 3.368352f, 1.481318f, -5.792147f, 2.548666f, 1.156677f, -0.855067f, 0.155857f, -0.150114f, -3.964735f, 1.856413f, -0.532645f, 1.938425f, -1.541332f, 3.798261f, -1.091686f, -9.477828f, 1.407752f, 1.735741f, -0.719907f, -4.044436f, -2.421191f, -4.148269f, 0.325306f, -2.251753f, -0.564410f, -0.376699f, -6.142920f, 0.808948f, 1.855995f, -3.379800f, 1.925771f, 1.882960f, -1.432742f, 2.448168f, -3.550485f, -1.717459f, 4.432327f, -3.526586f, -3.672368f, 6.246080f, -4.204086f, 0.445576f, 2.153993f, -3.501784f, -2.161425f, 0.324750f, 1.393631f, -0.942806f, -3.988912f, -9.035275f, -1.260805f, -0.824525f, -0.173160f, -1.502912f, -0.005954f, -5.319251f, -1.641416f, -0.750765f, 0.429178f, 0.986800f, -1.442679f, -5.674822f, 0.018592f, 0.802280f, 6.325677f, -0.437765f, -1.729588f, -3.066791f, -3.091405f, -3.088379f, 0.693828f, -5.194894f, 2.643873f, -2.539891f, -1.775420f, 1.428431f, 2.805974f, 0.433994f, -1.604071f, -1.615781f, -4.804066f, 7.513391f, 5.876272f, -0.726423f, -0.258115f, 1.756374f, 0.369833f, -3.562115f, 0.409381f, 0.868235f, -10.523671f, 2.837938f, 1.746374f, 2.190814f, 1.973462f, -7.783972f, 0.181282f, -3.183418f, -2.178313f, -0.056885f, 2.523399f, -2.690470f, -1.404914f, -3.636753f, -1.179555f, 0.807848f, -0.091725f, -4.487196f, -0.615335f, -1.003883f, -1.114369f, 0.690300f, 1.363741f, -1.709944f, -0.087456f, 1.599295f, 2.694376f, 4.724365f, -0.162184f, -1.302174f, 7.322733f, -0.316048f, 0.291825f, 1.166262f, -1.202062f, 2.119144f, -0.385582f, -1.420455f, 3.743080f, -0.549080f, -3.240833f, -0.246893f, -10.923948f, 10.529092f, -2.327948f, 5.268258f, 2.269336f, 4.582271f, -4.680918f, 1.504342f, 0.529824f, -3.345301f, 1.058398f, 0.951886f, -0.041634f, -0.074485f, 0.160233f, -0.010219f, -0.080413f, -0.058251f, 0.025145f, -0.173856f, 0.515700f, 0.095789f, -0.509040f, -0.184667f, -0.367571f, -0.669306f, -0.326031f, 0.417024f, -0.055190f, 0.077732f, 0.106637f, 0.213945f, 0.047682f, 0.052988f, -0.018940f, 0.096765f, 0.162972f, 0.034421f, -0.046485f, -0.267538f, 0.087645f, 0.007759f, -0.190824f, -0.145659f, -0.111425f, 0.068184f, 0.066988f, -0.077971f, 0.140671f, 0.072004f, 0.110877f, 0.116019f, 0.017503f, -0.237665f, -0.579418f, -0.027220f, -0.056957f, -0.061066f, -0.106529f, 0.437658f, 0.178329f, -0.119042f, -0.014405f, -0.074104f, 0.013752f, 1.008401f, 0.174465f, -0.153560f, -0.048311f, 0.049926f, -0.006740f, -0.067481f, -0.249372f, 0.170421f, 0.026532f, 0.181925f, -0.486048f, -0.009723f, -0.186950f, 0.038938f, -0.133819f, -0.565608f, -0.312959f, -0.093618f, 0.007430f, 0.098593f, 0.025076f, 0.331248f, -0.025393f, 0.177890f, -0.097475f, -0.002925f, 0.088651f, 0.048218f, -0.020362f, 0.050212f, 0.015527f, 0.000846f, 0.003117f, 0.168067f, 0.023059f, 0.085072f, 0.287286f, -0.076314f, 0.076477f, -0.024735f, 0.026265f, -0.036661f, 0.030675f, 0.257146f, 0.612704f, 0.006526f, 0.061266f, -0.008181f, -0.733659f, -0.256273f, -0.224535f, 0.081777f, 0.169452f, -0.040997f, -0.034023f, 0.544015f, 0.098935f, 0.087609f, 0.023097f, 0.125125f, -0.025271f, -0.321790f, 0.015496f, -0.085781f, -0.076009f, 0.229672f, -0.336412f, 0.064674f, -0.023708f, 0.681863f, -0.309431f, -0.177087f, -0.870041f, -0.226313f, -0.347590f, -0.638025f, -0.075859f, -0.684378f, 0.068578f, -0.334616f, -0.121398f, -0.213897f, -0.056267f, 0.584044f, -0.043068f, -0.076138f, -0.061631f, -0.056039f, -0.408918f, 0.084198f, -0.289666f, -0.001540f, -0.040351f, -0.116301f, 0.033586f, -0.040059f, -0.099600f, -0.053443f, -0.145923f, 0.437077f, 0.656312f, -0.167490f, 0.365685f, -0.231259f, -0.458680f, -1.168938f, 0.602814f, -0.012978f, -0.478519f, -0.189718f, 0.187396f, 1.614167f, -0.453835f, -0.106431f, 3.918606f, -2.131844f, -9.491821f, 4.588183f, -1.242641f, 4.517252f, 2.147979f, 1.084463f, 0.894080f, -5.894766f, -1.233810f, 1.369948f, 2.417211f, -0.618767f, -8.605441f, 1.050075f, -6.158194f, 1.332002f, -2.258434f, -3.339521f, 1.114949f, -7.534119f, -4.657764f, 4.101892f, 3.297708f, 1.991344f, -4.698126f, 2.027934f, 1.758026f, -0.032745f, 1.155865f, 0.156795f, -5.302311f, 3.149328f, -1.368848f, 2.570573f, -1.376497f, 4.553456f, -0.785286f, -8.002009f, 1.826074f, 0.723084f, -0.993515f, -3.545073f, -3.463518f, -3.140767f, 0.693750f, -2.009780f, -0.660758f, -2.045832f, -5.223444f, 1.607750f, 1.975261f, -4.184560f, 1.190308f, 2.326512f, 0.286193f, 2.610671f, -3.418406f, -1.805124f, 3.602494f, -1.986412f, -3.908737f, 6.216656f, -3.377447f, 2.669124f, 3.430779f, -3.810803f, 0.288749f, 0.193635f, 1.645343f, -1.269378f, -4.472545f, -8.813693f, -1.475404f, -1.680428f, -0.445785f, -1.114376f, 0.400059f, -4.715831f, -1.087131f, 0.029162f, -0.002405f, 0.425160f, -0.508940f, -4.070511f, -0.054825f, 0.705282f, 5.707767f, -0.417366f, -1.355362f, -1.876608f, -2.172323f, -2.587176f, -0.089932f, -4.778031f, 2.597111f, -3.463828f, -0.865769f, 1.484110f, 3.963287f, 0.691881f, -1.385974f, -2.211861f, -5.844905f, 6.281999f, 5.371388f, -0.379628f, -0.491097f, 2.009660f, 0.483920f, -3.270879f, 1.543007f, 0.358265f, -9.612676f, 2.451962f, 2.041397f, 1.580943f, 2.265434f, -7.138743f, -0.229846f, -2.684771f, -2.921852f, -0.379459f, 1.371229f, -2.910480f, -2.014393f, -4.174141f, -0.996330f, 1.051151f, -0.053297f, -4.866132f, -0.305395f, -1.553402f, -0.951467f, 0.470107f, 0.265121f, -3.096590f, 0.263075f, 1.537585f, 3.635198f, 4.616377f, 0.231699f, -1.515926f, 7.867795f, 0.350239f, 0.823156f, 2.347271f, -1.649075f, 2.713154f, 0.139544f, -1.117025f, 4.070278f, -1.894332f, -3.026333f, -0.074129f, -11.773376f, 8.304859f, -2.838163f, 5.423641f, 1.726100f, 4.653969f, -3.651018f, 1.818804f, 0.595989f, -2.895749f, 1.273794f, 0.725606f, -0.022165f, -0.203638f, -0.100158f, 0.180170f, 0.283093f, 0.160117f, 0.005277f, 0.091715f, 0.036964f, 0.040263f, -0.116986f, 0.394348f, 0.154688f, -0.267942f, 0.070877f, -0.169819f, -0.026913f, -0.417688f, -0.436835f, 0.270098f, 0.048689f, 0.085089f, 0.056934f, -0.256733f, -0.009084f, 0.293687f, -0.039082f, -0.069482f, -0.027415f, -0.090289f, -0.048528f, -0.576418f, 0.028259f, 0.045729f, -0.047408f, 0.010278f, -0.206952f, 0.060402f, -0.022238f, 0.003200f, 0.021987f, -0.055091f, -0.568780f, -0.056772f, -0.046155f, -0.028030f, 0.000478f, -0.257440f, 0.020175f, 0.181949f, -0.289449f, -0.000221f, -0.026780f, 0.262895f, 0.192879f, 0.027030f, -0.038597f, -0.071873f, -0.214692f, -0.122638f, -0.518488f, 0.017423f, 0.163116f, 0.153738f, -0.411364f, -0.103719f, 0.024392f, -0.334675f, -0.207194f, -0.001271f, -1.276747f, -0.048606f, 1.021761f, 0.333313f, -0.245438f, -0.056826f, -0.034813f, 0.053325f, -0.099459f, 0.309246f, -0.347627f, -0.243034f, -0.042300f, 0.242075f, -0.029059f, -0.052525f, 0.074468f, 0.197727f, -0.009157f, 0.014553f, 0.191033f, 0.038901f, 0.063738f, 0.019466f, -0.124103f, 0.009776f, -0.072579f, -0.158859f, -0.355687f, 0.029796f, 0.162696f, 0.043556f, -0.274657f, -0.084123f, -0.184442f, -0.109912f, 0.129212f, 0.003181f, -0.122127f, 0.381342f, 0.298482f, 0.069589f, 0.118679f, -0.161498f, 0.349844f, -0.035032f, 0.587538f, -0.169855f, 0.239965f, -0.373371f, -0.222688f, 0.018843f, -0.109221f, 0.793812f, -0.570749f, 0.170977f, -1.060710f, 0.227735f, 0.173996f, -0.156086f, 0.275178f, -0.355358f, 0.075721f, 0.055731f, -0.003975f, -0.520015f, -0.240386f, 0.745190f, 0.088197f, -0.181569f, 0.176432f, -0.013088f, 0.057010f, 0.259220f, -0.037878f, 0.028873f, 0.192039f, 0.035740f, -0.107678f, -0.006317f, -0.020728f, 0.013930f, 0.107474f, -0.209798f, 0.858444f, -0.004968f, 0.217650f, -0.101550f, -0.376606f, -0.292838f, 0.704004f, -0.581758f, 0.582824f, 0.039554f, -0.090381f, -0.983447f, -0.126505f, -0.141621f, 4.173237f, -1.173748f, -8.245531f, 4.793282f, -0.707494f, 4.169091f, 2.159513f, 0.886683f, -0.731848f, -4.268990f, -1.828508f, 1.018217f, 1.389008f, -1.180484f, -8.844275f, 0.704372f, -6.733320f, 1.435274f, -2.802902f, -3.667181f, 1.054085f, -7.824079f, -4.858179f, 4.082339f, 2.262840f, 0.905755f, -4.611284f, 1.527764f, 1.574632f, 0.472256f, 1.169325f, -0.125595f, -4.701794f, 3.913096f, -1.869443f, 3.306190f, -2.531076f, 4.187155f, 0.531444f, -6.626166f, 1.826465f, -0.580558f, -1.661384f, -1.857168f, -4.016783f, -1.522895f, -0.161165f, -1.775718f, -0.323064f, -1.811773f, -4.165096f, 1.898185f, 2.012187f, -4.721937f, 0.708397f, 2.442234f, -0.032416f, 3.413307f, -3.242343f, -2.526992f, 2.946540f, -3.398710f, -4.608665f, 5.901738f, -2.958965f, 2.283116f, 2.952871f, -3.448574f, 1.717253f, 0.205533f, 2.253062f, -2.315539f, -4.405926f, -7.860434f, -0.325666f, -1.102587f, -1.068054f, -0.890183f, 0.548266f, -4.651220f, 0.187951f, 0.982294f, 0.193367f, 0.287117f, -1.101339f, -5.161262f, -0.098930f, 1.645257f, 4.971906f, -0.784258f, -1.224735f, -2.241423f, -1.379571f, -2.204369f, -0.896467f, -4.732232f, 2.613177f, -3.010804f, -0.072749f, 1.677389f, 2.562215f, 1.243237f, -1.383667f, -1.704233f, -7.136171f, 5.940822f, 3.633067f, -0.823052f, -1.124083f, 2.428429f, 0.290614f, -4.031373f, 1.012881f, 0.375562f, -8.127514f, 2.039693f, 2.003857f, 1.388261f, 2.051309f, -6.466118f, 0.181403f, -1.163525f, -2.303941f, -1.156025f, -0.324881f, -2.116022f, -2.257130f, -3.824713f, -1.339355f, 0.746826f, -0.662465f, -5.512153f, -0.360272f, -1.627863f, 0.013519f, -0.776524f, -1.019023f, -5.137723f, 0.981060f, 0.800285f, 2.669485f, 4.763984f, 0.172792f, -1.332875f, 8.824584f, 0.602240f, 0.313955f, 2.124071f, -2.041425f, 2.421246f, 1.109625f, -0.528801f, 4.104704f, -2.446191f, -3.587089f, 0.278794f, -12.267732f, 7.749806f, -3.772736f, 5.990010f, 1.314733f, 5.628523f, -2.600419f, 2.072806f, -0.251753f, -2.549959f, 0.071008f, 0.260052f, -0.017935f, -0.067913f, -0.158456f, 0.154934f, -0.160662f, 0.056644f, 0.180121f, 0.103835f, 0.007123f, 0.100684f, 0.249093f, 0.019560f, -0.106989f, -0.328000f, 0.251065f, 0.059784f, -0.051830f, 0.016253f, -0.395696f, -0.164989f, 0.066839f, 0.105826f, 0.001780f, -0.375590f, -0.029863f, 0.175425f, -0.035527f, -0.062897f, 0.029269f, 0.036089f, -0.325634f, -0.222611f, 0.091337f, -0.049646f, 0.095268f, 0.016245f, 0.149436f, 0.082623f, -0.133766f, -0.057051f, 0.063404f, -0.250857f, -0.209785f, -0.036172f, 0.052120f, -0.006973f, 0.027239f, -0.356238f, 0.372716f, 0.112621f, 0.306989f, -0.188658f, 0.183240f, -0.207773f, 0.203865f, -0.070285f, 0.017750f, 0.180186f, -0.026274f, -0.141839f, -0.279527f, -0.077077f, -0.219475f, -0.057420f, -0.282320f, 0.020651f, 0.096614f, -0.138647f, -0.167829f, 0.066945f, -0.993622f, -0.177015f, -0.142184f, -0.049783f, -0.218443f, 0.305053f, 0.124707f, 0.260088f, -0.068419f, -0.084696f, 0.221979f, 0.018528f, 0.008596f, -0.247460f, -0.051112f, 0.102398f, -0.083944f, 0.182691f, 0.035577f, 0.038860f, 0.823537f, -0.049370f, 0.135629f, -0.005905f, -0.109530f, 0.057931f, 0.081056f, 0.152103f, -0.177246f, -0.030719f, -0.035093f, -0.041561f, -0.367847f, 0.296641f, -0.454536f, 0.008270f, 0.222358f, -0.108470f, 0.010784f, 0.538360f, 0.194452f, -0.064986f, 0.119313f, 0.522549f, 0.194657f, -0.133160f, -0.493712f, -0.057356f, -0.903502f, 0.015585f, 0.286206f, 0.034586f, -0.521335f, 0.655977f, 0.177777f, -0.396969f, -0.552120f, -0.865547f, -0.130143f, 0.533017f, -0.009750f, -0.554072f, -0.101230f, 0.173566f, 0.084705f, 0.654846f, -0.134709f, 0.458350f, -0.037223f, -0.336809f, 0.154184f, -0.404408f, 0.102586f, -0.128332f, -0.128705f, -0.018918f, -0.002616f, 0.107821f, -0.307039f, -0.300201f, -0.087256f, -0.016229f, 0.086986f, 0.341392f, -0.444640f, 0.105143f, 0.086520f, -0.047380f, 0.798743f, 0.075126f, -0.427074f, -0.235385f, 0.269600f, 0.178734f, -0.109836f, -0.860878f, -0.351810f, -0.472425f, 3.477492f, -1.445822f, -6.765375f, 4.376919f, 0.004689f, 2.498731f, 1.585612f, 1.597111f, -1.362832f, -3.178887f, -3.421427f, 0.976086f, 0.125361f, -0.620151f, -8.016630f, 0.090833f, -6.854047f, 1.122922f, -3.368982f, -4.342021f, 0.473211f, -8.274585f, -3.935199f, 3.608038f, 1.825323f, 0.197269f, -3.410255f, 0.523831f, 2.077689f, 0.259365f, 1.390940f, 0.235724f, -4.702345f, 5.616974f, -2.755651f, 2.692479f, -2.867860f, 2.965444f, 1.987791f, -4.855993f, 2.557996f, -1.792318f, -1.725247f, -0.868312f, -3.951560f, -0.491446f, -0.531054f, -0.860972f, -1.398049f, -1.687972f, -2.397155f, 1.426708f, 1.851379f, -4.238842f, -0.058871f, 2.478304f, 0.589926f, 3.364248f, -4.503146f, -2.450060f, 2.546527f, -2.933165f, -4.555024f, 5.385213f, -1.362315f, 2.409820f, 3.930687f, -3.492100f, 1.815584f, 0.174828f, 2.021011f, -1.407072f, -4.367978f, -6.419330f, -1.085699f, -0.798309f, -1.295470f, -0.437205f, 0.093344f, -4.465303f, 0.601791f, 0.215951f, 0.630676f, -0.493077f, -0.271077f, -4.290131f, -0.165098f, 0.947517f, 5.620302f, -1.448995f, -1.521708f, -1.145282f, -1.137349f, -2.798290f, -1.425043f, -5.955161f, 3.421496f, -3.322799f, -0.165271f, 1.338585f, 3.483663f, 0.962179f, -2.075481f, -2.220857f, -6.955552f, 5.282053f, 3.294426f, -1.405714f, -1.639117f, 2.476322f, -0.499754f, -3.684849f, 0.875514f, 0.823168f, -6.634737f, 2.426710f, 2.333610f, 1.311246f, 0.620705f, -6.152046f, -0.226591f, -1.290522f, -0.978866f, -2.524655f, -1.224442f, -3.038954f, -1.637291f, -3.482843f, -1.958437f, 0.038747f, -1.876216f, -6.016302f, 0.039851f, -1.971841f, 0.117527f, -1.244849f, -2.639422f, -5.687553f, 1.215091f, 0.718264f, 2.767874f, 4.355571f, -0.083592f, -1.453242f, 9.210880f, 1.170872f, -0.017481f, 1.720109f, -3.165172f, 2.297402f, 1.063990f, 0.116547f, 4.973908f, -4.481866f, -4.100370f, 0.434926f, -12.518698f, 7.967721f, -4.060435f, 6.050680f, 0.736797f, 5.682513f, -2.004095f, 3.136914f, -0.583369f, -2.253338f, 0.358305f, -0.480917f, -0.002270f, -0.023553f, 0.007732f, 0.043355f, -0.133962f, -0.065263f, -0.084652f, 0.072255f, -0.179670f, -0.036013f, 0.245664f, 0.194678f, 0.146272f, -0.505637f, 0.251611f, -0.357936f, -0.487608f, 0.475596f, -0.217788f, -0.123349f, 0.228803f, -0.020291f, 0.148321f, 0.162744f, -0.022684f, -0.095043f, -0.018853f, -0.058866f, 0.072676f, 0.014871f, -0.327094f, -0.173099f, -0.064159f, -0.030896f, -0.091278f, 0.100633f, 0.025917f, 0.112943f, 0.009630f, 0.058991f, -0.199371f, -0.160624f, -0.304934f, 0.020740f, 0.207209f, -0.059877f, -0.145503f, 0.269182f, 0.328680f, 0.029947f, -0.445028f, -0.087486f, 0.105030f, 0.417548f, 0.074152f, 0.024640f, 0.044582f, -0.083404f, 0.079152f, -0.001652f, 0.554444f, 0.220363f, 0.144023f, 0.236359f, -0.244083f, 0.002746f, 0.391598f, 0.012394f, -0.085536f, 0.348502f, -0.386845f, 0.080085f, 0.343666f, -0.082087f, 0.102265f, -0.268898f, 0.071119f, 0.168908f, -0.073588f, -0.171904f, 0.209635f, -0.184939f, -0.040325f, 0.021708f, -0.016006f, 0.064337f, 0.056279f, 0.252522f, 0.026342f, 0.018995f, 0.233049f, -0.097188f, 0.387110f, 0.071814f, 0.014391f, -0.014666f, -0.088345f, 0.325132f, -0.656359f, -0.029612f, 0.248689f, 0.004580f, -0.149868f, 0.003186f, -0.369405f, -0.013413f, 0.693986f, -0.032242f, -0.464007f, 0.037066f, 0.389269f, 0.118639f, -0.079252f, 0.772925f, 0.136788f, 0.192673f, -0.265013f, -0.539386f, 0.033330f, 0.342433f, 0.809402f, -0.136286f, -0.540878f, -0.766710f, 0.581748f, -0.001675f, -0.515914f, 0.400740f, 0.943903f, -0.934025f, 0.642686f, -0.131013f, 0.367309f, 0.142680f, -0.135766f, 0.227757f, 0.254155f, 0.831225f, 0.123587f, -0.289757f, 0.010897f, 0.293132f, -0.184172f, -0.081815f, -0.491567f, 0.066021f, 0.070982f, -0.128812f, 0.631631f, 0.143961f, 0.053116f, 0.038603f, -0.075990f, -0.220291f, -0.028613f, 0.028718f, -0.465388f, 0.007349f, 0.775433f, -0.303890f, 0.133883f, 0.294641f, 0.523224f, 0.162248f, 1.079628f, -0.828785f, -0.199046f, -0.114528f, 3.411486f, -2.006279f, -6.563360f, 4.248581f, 0.506681f, 2.311444f, 1.062964f, 2.198529f, -1.226153f, -2.623188f, -1.388689f, 0.418481f, -0.009283f, -1.172582f, -8.065328f, -0.278357f, -6.307201f, 0.275759f, -3.562159f, -3.793388f, -0.190717f, -8.630971f, -4.318004f, 2.979276f, 1.573436f, 0.161225f, -3.014336f, 0.238165f, 1.922544f, 0.590505f, 1.237807f, 0.300359f, -4.440313f, 6.150954f, -3.665999f, 2.414839f, -2.193804f, 1.485819f, 2.183081f, -4.547098f, 3.126098f, -2.626281f, -1.769352f, -0.465816f, -4.738564f, 0.705150f, -1.384786f, -0.085685f, -1.946650f, -1.389187f, -1.609269f, 2.072333f, 2.080035f, -4.052201f, -0.319587f, 2.046457f, 0.628472f, 2.992606f, -4.389057f, -1.224638f, 2.352434f, -2.695895f, -4.244025f, 5.072927f, -0.111724f, 1.175032f, 4.529934f, -3.058896f, 1.758607f, -0.546226f, 2.710788f, -1.953793f, -5.040723f, -4.933948f, -0.863849f, -0.267602f, -0.837889f, -0.468623f, 0.151372f, -4.053307f, 0.892481f, -0.471850f, 0.267424f, -0.604459f, -0.647636f, -5.048321f, 0.248099f, 1.279196f, 5.510879f, -1.534225f, -1.849209f, -0.086989f, -1.186189f, -2.078265f, -2.349017f, -4.872032f, 2.443312f, -4.002134f, 0.179843f, 0.665842f, 3.954692f, -0.062612f, -1.495410f, -2.434649f, -5.693405f, 4.989563f, 2.872822f, -1.338025f, -1.518554f, 1.717081f, -0.837354f, -3.248386f, 0.790918f, 0.346987f, -5.798965f, 1.821844f, 2.584142f, 1.112873f, 0.540225f, -5.058072f, -0.769465f, -0.716408f, 0.714596f, -2.854147f, -2.523309f, -2.713444f, 0.052316f, -4.319423f, -1.792464f, 0.791477f, -2.175785f, -6.519765f, -0.673049f, -2.278651f, 0.240792f, -1.784236f, -3.055074f, -7.008463f, 1.272821f, 0.211357f, 2.648218f, 3.681193f, 0.123858f, -1.333875f, 8.513296f, 1.972379f, -0.356897f, 1.214217f, -4.311055f, 1.459149f, 1.498986f, 0.754249f, 4.515350f, -4.369405f, -4.009893f, 0.369292f, -11.400935f, 7.434698f, -4.342013f, 6.144556f, 0.189093f, 5.443241f, -0.838183f, 3.200245f, -0.687468f, -2.073064f, 0.365938f, -1.069860f, -0.030018f, 0.339593f, 0.084023f, 0.002081f, -0.392822f, 0.003938f, 0.030181f, 0.099593f, 0.117746f, 0.055219f, -0.015141f, -0.277122f, 0.592681f, 0.116090f, 0.903021f, -0.220496f, -0.160365f, 0.063662f, -0.311642f, -0.067883f, -0.073720f, -0.031995f, 0.050405f, 0.514262f, -0.182130f, -0.141102f, 0.059521f, 0.160079f, 0.003996f, -0.085414f, -0.337330f, -0.309813f, 0.033074f, 0.003415f, -0.092512f, 0.062858f, 0.063192f, 0.072998f, 0.059217f, 0.014557f, -0.182070f, -0.122654f, -0.199700f, -0.108333f, -0.273778f, 0.034669f, -0.074475f, -0.226860f, 0.126466f, 0.192821f, 0.150761f, -0.168448f, 0.554598f, -0.170863f, -0.174518f, 0.133768f, 0.012689f, 0.046927f, 0.032121f, 0.125807f, 0.408999f, 0.196861f, 0.085934f, -0.181262f, 0.330187f, 0.005698f, 0.459810f, -0.584787f, -0.016149f, 0.872677f, -0.265906f, -0.124222f, -0.232431f, -0.197930f, -0.125273f, 0.057321f, 0.045073f, 0.210171f, -0.065616f, -0.194320f, 0.140447f, -0.279648f, 0.000703f, -0.169516f, -0.009730f, 0.125995f, 0.102776f, 0.273866f, 0.068930f, -0.017416f, 0.771994f, -0.027202f, 0.172964f, -0.068784f, 0.041659f, -0.080967f, 0.127126f, 0.000662f, -0.004897f, -0.038849f, 0.251727f, -0.021429f, 0.033555f, 0.363108f, -0.197829f, 0.054845f, 0.052191f, -0.007181f, 0.081364f, 0.043572f, 0.062788f, 0.231165f, 0.046660f, 0.613022f, 0.386957f, -0.032116f, 0.370139f, -0.217209f, -0.419218f, -0.318087f, 0.899338f, 0.053043f, 0.310712f, -0.189042f, 0.706611f, -0.426427f, -0.351314f, -0.751662f, 0.088065f, -0.614160f, 0.507976f, -0.418673f, 0.550984f, 0.011656f, 0.055242f, -0.558567f, -0.238576f, 0.660234f, -0.064845f, -0.482522f, -0.054002f, -0.322089f, -0.223590f, 0.058646f, -0.113770f, 0.071840f, 0.442084f, -0.217956f, 0.416837f, -0.158051f, 0.233800f, 0.034315f, -0.116895f, 0.052095f, -0.215414f, -0.036235f, -0.486897f, -0.237329f, 0.435899f, 0.894914f, 0.059696f, -0.184327f, 0.526984f, 0.248810f, 0.295567f, -1.126662f, -0.056711f, -0.095802f, 2.848588f, -2.597532f, -6.800201f, 3.897002f, 0.311870f, 2.417351f, 0.269760f, 2.214519f, -1.377247f, -1.690693f, -2.383668f, 0.713430f, 1.527143f, -0.845024f, -7.876942f, -2.537609f, -5.542709f, -0.429829f, -3.233325f, -4.959951f, -0.574520f, -7.528169f, -3.554717f, 2.785678f, 1.009670f, -1.689342f, -2.862891f, 0.029988f, 2.036435f, -0.197786f, 0.548593f, 0.203195f, -3.329918f, 6.036555f, -4.001242f, 0.806845f, -2.499752f, 1.027744f, 2.703669f, -3.004007f, 2.681416f, -2.499640f, -1.440430f, -0.385086f, -5.505869f, 1.639426f, -1.819682f, 0.373571f, -2.897678f, -1.644334f, -0.880208f, 1.817125f, 1.136910f, -4.110860f, -0.622618f, 2.046232f, 0.335433f, 2.917952f, -4.987292f, -0.694964f, 2.132445f, -2.262451f, -2.875722f, 4.060390f, 0.813189f, -0.577173f, 3.986793f, -2.186167f, 2.719846f, -0.682429f, 3.063850f, -1.141775f, -4.686569f, -2.477705f, -0.883836f, -0.166880f, -0.941460f, -1.345859f, -1.038128f, -3.058652f, -0.122163f, -1.826249f, -1.033696f, -0.002842f, -1.693025f, -3.700743f, 0.562716f, 0.722111f, 6.059489f, -2.788413f, -0.908474f, -0.395135f, -1.307789f, -1.963180f, -2.980537f, -4.177633f, 2.141269f, -4.512876f, 0.277836f, -0.842003f, 4.468132f, -0.638286f, -0.979809f, -2.249745f, -4.939176f, 4.992744f, 2.323193f, -1.470459f, -1.610658f, 2.001390f, -0.825027f, -2.597766f, 1.271015f, 0.649769f, -4.985799f, 1.563207f, 2.148545f, 0.753627f, -0.571077f, -4.645755f, -0.555333f, -0.591702f, 1.653724f, -4.213522f, -3.621891f, -2.918099f, 0.642571f, -5.099864f, -1.586131f, -0.506597f, -2.204395f, -6.192207f, -0.031252f, -2.496830f, -0.283502f, -2.195153f, -2.134238f, -6.966665f, 1.330011f, 0.941856f, 2.564720f, 3.578686f, -0.080146f, -1.593065f, 8.985547f, 1.786185f, -0.987668f, 1.257478f, -5.061367f, 0.881416f, 2.196821f, 0.925652f, 5.406545f, -4.206228f, -3.876303f, 0.678162f, -11.228079f, 7.244825f, -4.451972f, 5.732059f, 0.157843f, 5.569850f, -0.719284f, 3.186737f, -0.838297f, -1.600105f, 0.658490f, -1.246575f, -0.095554f, 0.047215f, -0.104523f, -0.159602f, 0.109005f, 0.106122f, -0.057231f, 0.037523f, 0.092354f, 0.050024f, 0.396037f, -0.495035f, 0.232401f, -0.139019f, -0.126593f, -0.139915f, 0.117497f, -0.120305f, -0.033523f, -0.099373f, -0.014229f, 0.008518f, -0.123895f, 0.355861f, -0.459627f, -0.053071f, -0.038737f, 0.466443f, -0.080898f, -0.068800f, -0.334471f, -0.227679f, -0.017357f, -0.023671f, 0.119192f, -0.099066f, -0.043077f, 0.073845f, 0.011819f, -0.091792f, 0.077788f, -0.188191f, -0.386357f, 0.047441f, -0.280082f, -0.050249f, -0.108575f, 0.208395f, 0.336668f, -0.146091f, 0.143820f, 0.019540f, 0.161200f, -0.113657f, 0.106975f, -0.028081f, 0.048590f, -0.096766f, 0.226506f, 0.122936f, -0.025398f, -0.145690f, 0.396939f, -0.057931f, -0.006061f, 0.005707f, 0.293025f, 0.519708f, -0.109854f, 0.760905f, 0.313626f, -0.198169f, -0.472519f, -0.313784f, -0.384759f, -0.699742f, -0.012834f, 0.252100f, 0.030677f, -0.454242f, -0.161365f, -0.291802f, -0.051019f, -0.108577f, 0.115432f, 0.106023f, 0.114359f, 0.295710f, 0.070370f, 0.017440f, 0.718453f, 0.082803f, 0.133845f, -0.003675f, -0.071462f, 0.050579f, 0.017229f, 0.622539f, 0.578753f, -0.073833f, 0.152390f, -0.043058f, -0.131453f, 0.238433f, -0.294527f, -0.058515f, -0.048387f, -0.100379f, -0.030759f, -0.157406f, 0.147794f, 0.189330f, 0.011477f, 0.722747f, 0.183195f, 0.132380f, -0.014360f, -0.207535f, -0.158984f, 0.262312f, 0.515537f, 0.121549f, 0.422825f, 0.605228f, 0.717164f, -0.698818f, 0.700423f, -0.664485f, -0.527734f, 0.247946f, 0.648390f, -0.243214f, 0.184097f, 0.444865f, 0.015836f, -0.262585f, 0.159235f, -0.290425f, 0.076566f, -0.686029f, -0.077842f, -0.239997f, 0.018331f, 0.360605f, -0.101810f, 0.199351f, 0.518312f, 0.014844f, 0.211308f, -0.276684f, 0.076669f, 0.054041f, 0.148892f, 0.327953f, 0.714952f, 0.015778f, -0.334680f, 0.094445f, 0.704155f, 0.095079f, -0.355869f, -0.286761f, -0.278544f, -0.011767f, -0.433783f, -0.559583f, -0.498029f, -0.315247f, 2.658496f, -2.518825f, -5.544449f, 2.823482f, 1.434062f, 2.091754f, -0.435233f, 2.035785f, -0.331091f, -1.237161f, -1.738389f, -0.257321f, 1.378686f, -1.060630f, -8.041051f, -2.968522f, -5.474725f, -0.154635f, -3.027116f, -5.100378f, 0.230739f, -7.280790f, -3.324371f, 2.418323f, -0.141196f, -1.621675f, -2.671057f, 0.150591f, 1.140595f, 0.092709f, 0.154531f, 0.527003f, -3.175795f, 7.076792f, -4.374470f, 1.165648f, -2.918014f, 0.918580f, 3.500341f, -1.875110f, 2.983010f, -2.920119f, -1.719555f, 0.084637f, -5.254858f, 1.978000f, -3.011293f, 1.034758f, -2.855981f, -1.375600f, -1.106684f, 1.251539f, 1.174171f, -3.856965f, -1.326826f, 1.963569f, 0.991918f, 3.402169f, -4.548364f, -0.031380f, 1.509835f, -1.780563f, -2.504739f, 3.482068f, 0.962398f, -0.543161f, 3.416006f, -2.478598f, 0.790516f, -1.046407f, 2.312425f, -0.720745f, -4.492543f, -0.763891f, -1.418908f, 0.056301f, 0.056407f, -1.575637f, -1.666059f, -2.347692f, 0.581505f, -3.498340f, -0.487466f, -0.637553f, -1.273149f, -4.129153f, 0.993590f, 0.379442f, 5.538145f, -1.141202f, -1.282864f, 0.542277f, -1.723232f, -1.172511f, -1.555174f, -3.394726f, 0.921722f, -4.389177f, 0.872000f, -0.539599f, 3.842270f, -1.474336f, -0.886999f, -2.104167f, -3.206317f, 3.332493f, 1.626475f, -0.823963f, -1.318517f, 2.155391f, -0.196129f, -3.083901f, 0.735539f, 1.039403f, -4.462869f, 1.421176f, 1.767795f, 1.056534f, 0.248174f, -4.896509f, -0.081516f, 0.833880f, 1.925327f, -4.426630f, -4.714879f, -2.858126f, 0.961030f, -5.898611f, -1.076363f, -1.417619f, -1.980312f, -6.394387f, -0.027267f, -2.088299f, 0.107812f, -1.942405f, -1.610540f, -6.836314f, 1.582002f, 0.959037f, 2.645534f, 3.928538f, 0.315461f, -1.599734f, 8.460524f, 2.310457f, -1.005616f, 0.832307f, -4.672789f, 0.106387f, 2.768199f, 0.534015f, 4.204825f, -3.402276f, -3.406962f, 0.842541f, -11.969205f, 5.996240f, -3.665211f, 5.743894f, 0.012824f, 6.045102f, -0.488965f, 3.388220f, -0.760983f, -1.527586f, 0.624870f, -1.640903f, 0.055826f, -0.164623f, -0.040492f, -0.024327f, 0.085497f, -0.107225f, -0.337410f, 0.175330f, 0.811538f, 0.124730f, -0.348706f, -0.135148f, -0.080364f, -0.696551f, -0.103796f, 0.262184f, 0.164678f, -0.111348f, 0.175103f, 0.003616f, 0.272770f, 0.199393f, 0.017590f, -0.203633f, 0.231363f, -0.320501f, -0.059267f, 0.012732f, 0.079919f, -0.145143f, -0.556055f, 0.065557f, -0.039540f, 0.011134f, -0.240262f, -0.089795f, 0.076508f, -0.064479f, 0.045315f, -0.047186f, 0.133240f, 0.186932f, 0.021122f, 0.066311f, 0.343178f, 0.092748f, -0.156204f, 0.328518f, 0.102202f, -0.179577f, 0.008204f, -0.023284f, -0.056473f, -0.367275f, 0.264236f, 0.040684f, 0.104246f, 0.392476f, 0.058899f, -0.095022f, -0.615719f, 0.029750f, -0.525200f, 0.024443f, 0.430449f, 0.052078f, 0.483005f, -0.618881f, -0.185274f, 0.215742f, -0.152918f, 0.074296f, 0.020977f, 0.196589f, -0.301240f, -0.213639f, 0.386575f, 0.124387f, -0.087188f, 0.158232f, -0.059045f, -0.008636f, 0.015633f, -0.216244f, -0.053114f, -0.099722f, -0.037158f, 0.053736f, -0.011486f, 0.052581f, -0.053210f, 0.075031f, 0.199198f, 0.127584f, -0.010998f, -0.049616f, -0.053273f, -0.025310f, 1.006304f, 0.006212f, 0.085548f, 0.009417f, 0.272901f, 0.041869f, -0.274188f, -0.078010f, -0.229050f, -0.015647f, 0.249473f, -0.374835f, -0.154224f, 0.006722f, -0.157502f, 1.033233f, 0.024508f, 0.217120f, 0.060596f, -0.399078f, 0.155623f, -0.397064f, -0.330542f, 0.091295f, 0.121998f, 0.205204f, 0.775276f, -0.356376f, 0.431068f, 0.280605f, 0.376173f, 1.097334f, 0.205347f, -1.362342f, 0.164046f, 0.069626f, 0.046550f, 0.045812f, -0.082379f, -0.580940f, -0.027077f, -0.308534f, -0.167229f, -0.835130f, 0.267248f, 0.311295f, -0.414493f, 0.071965f, -0.237183f, -0.120337f, 0.253030f, -0.310535f, 0.067973f, -0.187755f, -0.046092f, -0.251360f, 0.234610f, 0.006331f, 0.101819f, 0.053129f, 0.042730f, 0.294207f, 0.136106f, -0.059517f, 0.083591f, 0.384966f, -0.623983f, -0.395491f, -0.242140f, -0.287316f, 2.951568f, -2.096339f, -5.194155f, 2.287899f, 1.487746f, 2.534625f, 0.460251f, 1.589321f, -0.484209f, -1.370590f, -1.807204f, -0.557031f, 0.810971f, -1.323474f, -7.373229f, -4.001919f, -5.147630f, -0.488462f, -2.800280f, -5.285374f, 0.754113f, -7.406316f, -3.607136f, 1.634289f, -0.868368f, -1.046355f, -2.408461f, 0.119845f, 1.598343f, -0.685352f, -0.427531f, 0.071233f, -3.932100f, 7.000276f, -4.053059f, 1.115393f, -3.264384f, 0.351347f, 3.990896f, -2.091523f, 3.182656f, -2.195163f, -2.315715f, -0.111066f, -5.511385f, 1.337606f, -2.749686f, 0.779434f, -2.590527f, -2.118501f, -1.409785f, 0.964994f, 1.154428f, -3.630949f, -0.949495f, 2.236261f, 0.524197f, 2.855708f, -5.147460f, 0.492994f, 0.979199f, -1.095664f, -2.612751f, 2.888469f, 2.011969f, -1.131380f, 2.803249f, -1.998337f, 0.113337f, -0.723521f, 3.808192f, -0.518309f, -4.024316f, -2.269183f, -1.484896f, 0.393494f, -0.514310f, -1.706275f, -0.999139f, -2.533754f, 0.553594f, -3.826131f, -0.251476f, -0.534421f, -1.078499f, -3.623304f, 0.693689f, -0.018478f, 6.516740f, -1.499652f, -1.226531f, -0.176590f, -1.484033f, -1.468709f, -1.908462f, -4.059307f, 1.131660f, -4.423195f, 1.394365f, -0.048654f, 4.211068f, -0.398577f, -0.498999f, -1.755740f, -3.517333f, 2.765082f, 2.291192f, -0.266901f, -2.314616f, 2.839307f, 0.341193f, -3.484235f, 0.545729f, 1.019689f, -3.820071f, 0.659222f, 0.886664f, 0.396043f, -0.411621f, -4.955781f, 0.500773f, 1.292567f, 1.229076f, -4.607825f, -4.041688f, -2.891445f, 1.266674f, -4.380911f, -0.420505f, -1.710210f, -1.222638f, -6.440848f, -0.135408f, -1.712492f, 0.390467f, -2.141409f, -1.858029f, -5.780870f, 1.523100f, 1.018704f, 2.497126f, 1.918999f, 0.371492f, -1.297848f, 8.210110f, 1.096424f, -0.444486f, 0.258557f, -3.932000f, -0.746064f, 2.139416f, 0.162446f, 3.394717f, -3.207223f, -2.795652f, 0.499700f, -11.193074f, 5.514360f, -3.635365f, 5.485279f, -0.593910f, 5.599355f, 0.006978f, 2.729306f, -1.138725f, -1.282693f, 0.440505f, -1.901736f, -0.103759f, 0.101235f, 0.135746f, -0.169760f, -0.337220f, 0.266677f, 0.660979f, 0.137912f, -0.299052f, 0.046557f, -0.045845f, -0.156197f, -0.068690f, -0.674706f, 0.260592f, 0.339574f, 0.159888f, 0.064909f, 0.203069f, -0.804594f, 0.292146f, -0.007619f, 0.038097f, 0.071686f, -0.211210f, -0.643692f, -0.139994f, 0.029161f, -0.096288f, -0.021809f, -0.388823f, -0.309416f, -0.048834f, 0.034459f, -0.049931f, -0.148795f, -0.092194f, -0.005002f, 0.012665f, -0.016962f, -0.135915f, -0.138188f, -0.024793f, -0.003598f, -0.087537f, 0.062724f, -0.067023f, -0.149131f, 0.305108f, 0.222029f, 0.058208f, -0.184688f, 0.270194f, -0.309328f, -0.157270f, -0.227532f, -0.006854f, -0.213965f, 0.011717f, 0.172240f, 0.088963f, -0.002351f, 0.311624f, -0.028659f, 0.107598f, 0.018610f, -0.016114f, 0.228594f, -0.259011f, -0.055317f, 0.228568f, 0.328082f, -0.163040f, -0.189326f, -0.337070f, -0.059030f, 0.204642f, -0.031738f, -0.013966f, -0.515563f, 0.289043f, 0.218123f, 0.061548f, -0.386603f, -0.048197f, 0.119125f, 0.110598f, 0.167767f, -0.040499f, 0.006904f, 0.290112f, 0.102536f, 0.280557f, 0.132290f, -0.053622f, 0.016319f, -0.105024f, 0.083375f, 0.875337f, -0.041093f, 0.312166f, -0.049857f, -0.250540f, 0.113252f, -0.265786f, 0.040485f, -0.286596f, 0.077874f, -0.870008f, 0.004527f, 0.264266f, 0.260499f, -0.117438f, 0.766532f, 0.179846f, 0.173370f, 0.144309f, -0.268081f, 0.124957f, -0.391756f, -0.121788f, 0.012915f, 0.680491f, 0.554842f, 0.354402f, -0.435149f, 0.058827f, 0.347074f, 0.063435f, -0.110776f, -0.399465f, -0.224993f, -0.229739f, -0.102043f, 0.113110f, -0.135704f, -0.776269f, 0.313284f, -0.111943f, -0.557706f, -0.078307f, -0.698161f, -0.008695f, 0.115654f, -0.109147f, 0.021386f, -0.421447f, -0.208031f, -0.202818f, 0.120058f, -0.046880f, -0.181883f, 0.068496f, -0.501594f, 0.126686f, -0.067615f, 0.259815f, -0.050687f, 0.482991f, 0.011896f, 0.178541f, 0.083766f, -0.439429f, 0.162378f, 0.471051f, -0.240504f, 0.204245f, -0.547772f, 2.960078f, -1.172502f, -4.346348f, 2.335594f, 1.253746f, 1.904977f, -0.389169f, 0.532630f, -0.881215f, -0.889190f, -3.782261f, -0.306613f, -0.276742f, -0.901830f, -7.444240f, -3.394004f, -5.124587f, 0.672594f, -2.395509f, -5.195676f, 1.524864f, -6.851668f, -2.645518f, 1.912549f, -0.706051f, -1.412069f, -1.544456f, -0.273393f, 1.827387f, -0.966103f, -0.055182f, 0.108350f, -4.564194f, 7.537282f, -3.532583f, 0.946482f, -3.601027f, -0.930757f, 5.434392f, -0.598649f, 2.277945f, -2.551614f, -2.776887f, 0.114179f, -5.681226f, 1.075127f, -3.152133f, 0.466193f, -3.011191f, -3.071587f, -1.668232f, 1.420960f, 0.824297f, -3.364375f, -1.602806f, 1.466503f, 0.553238f, 3.212579f, -4.911072f, 0.507168f, 0.475885f, -1.297989f, -1.751751f, 2.158033f, 2.647583f, -0.099624f, 2.543218f, -1.402074f, 0.741336f, -1.230465f, 3.054517f, 0.015892f, -3.636277f, -1.416468f, -1.362560f, 0.255384f, -1.067865f, -2.027202f, -2.186727f, -1.518382f, 0.907954f, -4.429455f, 0.007993f, -0.027342f, -1.628481f, -2.151383f, 0.328077f, -0.172996f, 5.759234f, -0.684229f, -1.418587f, -0.718622f, -0.668012f, -0.638231f, -0.854867f, -4.134590f, 1.096875f, -5.321370f, 1.675551f, -0.227061f, 3.652731f, -0.926951f, -1.068244f, -1.101604f, -2.720733f, 2.347484f, 1.545653f, -0.847036f, -1.786915f, 3.035882f, 0.209006f, -4.348213f, 0.403292f, 0.451879f, -3.049298f, 0.408537f, 0.760791f, 0.076437f, -0.892540f, -3.708077f, 1.071198f, 2.272649f, 1.835073f, -4.863508f, -3.921793f, -2.227107f, 2.043578f, -3.797890f, 0.674983f, -2.774503f, -1.486604f, -7.113374f, -1.086846f, -1.793341f, 1.001183f, -2.167141f, -1.457463f, -5.221503f, 1.429525f, 0.835966f, 2.305435f, 0.595304f, 0.087819f, -0.979624f, 8.877983f, 2.607698f, -0.775460f, 0.153120f, -4.356925f, -1.081026f, 2.096069f, 1.409502f, 3.103127f, -2.605563f, -2.061838f, 1.069562f, -12.266249f, 4.718051f, -3.558929f, 4.921511f, -0.677933f, 5.710207f, 0.651915f, 2.372999f, -0.905697f, -0.376770f, -0.663932f, -2.096849f, -0.071482f, 0.272261f, -0.134714f, 0.114422f, 0.212307f, 0.013642f, -0.027231f, -0.014899f, -0.108258f, 0.069428f, -0.509801f, 0.053567f, -0.237509f, -0.548919f, 0.247664f, -0.153888f, -0.091036f, 0.452299f, -0.443877f, 0.356900f, -0.070930f, 0.007619f, -0.192818f, -0.586696f, -0.105232f, 0.564136f, -0.026016f, -0.010151f, -0.069183f, -0.047995f, -0.215393f, 0.141101f, 0.146658f, 0.000032f, 0.152664f, -0.042965f, 0.037286f, 0.132857f, -0.007006f, -0.134990f, 0.100961f, 0.053365f, 0.535342f, -0.025815f, 0.017155f, -0.026593f, -0.492048f, -0.049561f, 0.201010f, -0.257907f, -0.071666f, -0.204492f, 0.290362f, 0.075057f, -0.089424f, 0.146314f, 0.068738f, -0.275392f, -0.133812f, 0.005221f, -0.721657f, 0.103170f, 0.267006f, 0.042240f, 0.393741f, 0.009856f, 0.008897f, 0.019205f, -0.269907f, 0.398883f, -0.176586f, 0.064289f, 0.275842f, 0.091755f, -0.909593f, -0.515485f, 0.354912f, 0.128385f, 0.006197f, 0.371511f, -0.508983f, 0.226325f, 0.020942f, -0.068310f, 0.042856f, -0.115696f, 0.132562f, 0.117517f, 0.078534f, -0.009953f, -0.649036f, -0.125624f, 0.245953f, 0.077898f, -0.011179f, 0.022247f, -0.090069f, -0.077343f, 0.044683f, -0.008539f, 0.134201f, 0.064120f, 0.056195f, -0.083663f, -0.214495f, -0.008342f, 0.125799f, 0.142296f, 0.135592f, 0.176899f, 1.129075f, 0.132981f, 0.177893f, 0.937008f, 0.176640f, -0.201949f, 0.042232f, -0.297727f, 0.078861f, -0.196527f, -0.081581f, 0.051563f, -0.157354f, -0.116028f, 0.267002f, -0.422298f, 0.405835f, -0.330036f, 0.024367f, 0.776870f, 0.640572f, 0.491094f, 0.159244f, 0.233290f, 0.094043f, 0.053782f, -0.023271f, -0.052200f, 0.133250f, -0.436117f, -0.080708f, 0.037506f, -0.503877f, -0.114047f, -0.067845f, -0.043938f, -0.344398f, -0.096207f, 0.098977f, -0.483714f, -0.118040f, 0.092347f, 0.282190f, -0.130145f, -0.460572f, 0.066873f, 0.154126f, -0.057046f, 0.681881f, -0.915537f, 0.412778f, -0.625191f, -0.398663f, 0.202022f, 0.586280f, 0.213904f, -0.133906f, -0.571673f, 3.393674f, -0.823663f, -3.896048f, 1.854096f, 1.684344f, 1.721973f, -0.808980f, 0.452710f, -1.066625f, -0.544780f, -5.567284f, -0.603341f, -1.186054f, -0.946796f, -7.791798f, -3.247266f, -5.454578f, 1.221906f, -2.826498f, -5.535843f, 1.402985f, -8.120330f, -2.066379f, 2.009505f, -1.152212f, -2.400213f, -0.973782f, -0.877704f, 2.168865f, -1.268780f, 0.111919f, -0.086800f, -3.837006f, 8.089508f, -3.559782f, 1.168316f, -4.010532f, -0.895622f, 5.796811f, 0.411409f, 2.667605f, -2.678565f, -2.910516f, 0.173880f, -5.133479f, 0.956939f, -2.826680f, 0.143872f, -2.254960f, -4.890997f, -1.212050f, 1.636320f, 0.615792f, -3.388850f, -2.112291f, 1.288690f, 1.064638f, 2.321576f, -5.256885f, -0.051246f, 0.236506f, -1.494057f, -0.882513f, 2.367196f, 2.000758f, -0.235751f, 3.144246f, -1.484952f, 0.151743f, -1.197414f, 3.102641f, -0.433416f, -3.247539f, -0.832687f, -1.978930f, 1.541180f, -1.452885f, -2.179653f, -2.713970f, -1.677991f, -0.099297f, -5.455457f, -0.267265f, -0.017556f, -2.397514f, -1.276511f, 0.868688f, -0.941540f, 6.190172f, -1.893892f, -1.514391f, -1.093279f, -1.243620f, -1.384068f, -1.716449f, -3.842623f, 1.303904f, -5.530285f, 2.290017f, -0.219849f, 4.125939f, 0.128320f, -1.157554f, 0.361436f, -2.582231f, 1.731202f, 1.996843f, -0.695911f, -2.195528f, 3.370104f, -0.230962f, -4.742398f, 0.530953f, -0.152305f, -2.974542f, 0.693448f, 0.433259f, 0.201069f, -1.387571f, -3.044833f, 1.166216f, 1.318923f, 2.222528f, -4.618472f, -3.586717f, -1.303215f, 2.229972f, -3.981798f, 1.005934f, -4.118403f, -0.469231f, -7.048429f, -1.289783f, -1.345326f, 1.425566f, -1.838426f, -0.568852f, -3.952557f, 1.032253f, 0.788357f, 1.988513f, -0.855102f, -0.274266f, -0.280921f, 9.177081f, 2.600328f, -0.457999f, 0.396167f, -4.310967f, -1.164056f, 2.504690f, 0.958700f, 3.110456f, -1.915362f, -1.831822f, 0.927170f, -11.756077f, 3.677610f, -2.742013f, 3.832275f, -1.016926f, 4.261250f, 1.059467f, 1.962599f, -0.890708f, 0.042990f, -0.528046f, -1.797714f, -0.106301f, 0.136864f, -0.091143f, -0.166323f, -0.036548f, 0.098996f, -0.500949f, -0.128068f, 0.126459f, -0.001724f, -0.325812f, 0.253082f, -0.000870f, -0.730510f, -0.162830f, -0.093298f, -0.007130f, 0.256809f, -0.440397f, -0.205362f, 0.204098f, 0.135947f, -0.111469f, -0.179654f, 0.079364f, -0.058588f, -0.155942f, 0.240250f, -0.033238f, 0.090200f, -0.299601f, -0.383912f, -0.042874f, -0.001640f, -0.016040f, 0.007338f, 0.041437f, 0.288640f, 0.156348f, -0.090926f, 0.077346f, -0.202021f, 0.259020f, 0.079777f, 0.021460f, 0.022495f, -0.254184f, -0.240664f, 0.235991f, 0.189720f, 0.396395f, -0.102011f, -0.149607f, 0.332063f, -0.244118f, 0.099552f, 0.099000f, -0.020741f, -0.001666f, 0.035650f, -0.157327f, -0.025077f, -0.181022f, -0.096591f, 0.023603f, -0.000413f, -0.005205f, 0.242790f, -0.117275f, 0.112998f, -0.080550f, 0.391791f, 0.044855f, -0.004450f, -0.199324f, 0.195374f, 0.343751f, 0.253666f, -0.054250f, -0.230939f, -0.104003f, -0.114344f, 0.016653f, -0.011436f, -0.014544f, -0.228335f, 0.061995f, 0.396947f, -0.011362f, -0.017365f, -0.158308f, -0.050556f, 0.365823f, 0.298211f, -0.024988f, -0.036511f, 0.019590f, 0.085060f, 0.055834f, 0.031068f, 0.088779f, 0.008808f, 0.168197f, -0.134738f, -0.553100f, -0.033970f, -0.101511f, -0.016992f, 0.416692f, 0.187704f, -0.041439f, 0.465681f, 0.083840f, 0.249805f, 0.029144f, -0.145631f, 0.192630f, 0.455660f, -0.853326f, 0.408070f, 0.179662f, -0.043286f, -0.559837f, 0.382490f, -0.234538f, -0.262124f, 0.062830f, 0.403204f, -0.317360f, 1.089575f, 0.847167f, 0.509771f, 0.228665f, 0.376976f, 0.046576f, 0.081861f, 0.422193f, -0.934125f, -0.007095f, -0.658045f, -0.011361f, 0.032948f, 0.279396f, -0.260631f, -0.106109f, 0.060875f, 0.274176f, 0.002944f, 0.186749f, -0.044654f, -0.078950f, -0.053808f, 0.062620f, -0.752590f, -0.437202f, 0.120056f, 0.389087f, -0.015325f, -0.113190f, 0.028314f, -0.161201f, -0.795587f, 0.049371f, 0.043570f, -0.369294f, 0.090828f, 0.379431f, 0.017146f, 2.740523f, -1.217802f, -1.889830f, 1.313080f, 1.457088f, 0.577387f, -1.272547f, 0.472601f, -0.932944f, 0.064203f, -6.534538f, -0.414516f, -2.191419f, -0.540978f, -8.060053f, -3.442398f, -5.472125f, 1.336075f, -2.516594f, -4.249715f, 1.428389f, -8.047574f, -1.635352f, 2.300208f, -2.012220f, -2.546618f, -1.096327f, -1.294268f, 1.795165f, -1.556340f, -0.224303f, -0.119910f, -4.358722f, 8.103063f, -2.885461f, -0.172199f, -3.834796f, -0.779981f, 5.412406f, 1.359486f, 2.004416f, -1.973217f, -2.433196f, 0.926817f, -5.151380f, 0.580098f, -2.853575f, 0.134007f, -2.042689f, -3.434934f, -0.055074f, 1.453070f, 0.057226f, -3.465398f, -2.774772f, 1.468592f, 0.978881f, 2.042283f, -4.698718f, 0.395400f, -0.209335f, -1.731106f, -1.895142f, 2.169152f, 1.415050f, -0.698125f, 3.434344f, -1.530400f, -0.668747f, -1.105386f, 3.504459f, 0.415555f, -3.529392f, -1.869575f, -2.035054f, 1.690449f, -0.923673f, -1.455817f, -2.176397f, -2.138066f, -1.008323f, -6.334873f, -1.078024f, -0.007384f, -2.188102f, -1.005325f, 0.685625f, -1.095535f, 6.742340f, -1.536068f, -1.269532f, -0.676909f, -1.094867f, -1.675209f, -2.664896f, -3.958126f, 1.204066f, -7.191881f, 1.714329f, 0.048485f, 4.514678f, 0.349316f, -2.089941f, 1.942411f, -3.022930f, 2.708397f, 2.395265f, -0.946963f, -2.725491f, 3.422312f, -0.731997f, -5.221626f, 0.431187f, -0.326825f, -2.220435f, 0.655822f, 0.043512f, -0.331816f, -1.300361f, -1.821617f, 0.906679f, 1.612094f, 2.607516f, -4.752432f, -4.499261f, -0.901724f, 2.448243f, -2.994480f, 1.619575f, -3.539309f, -0.257894f, -6.566984f, -0.914151f, -1.379811f, 1.060681f, -1.415115f, 0.531666f, -3.767663f, 1.384434f, 0.324593f, 1.633335f, -1.392519f, 0.254007f, -0.157525f, 8.764390f, 2.825735f, 0.306996f, 0.200334f, -4.187873f, -1.125569f, 2.524700f, 1.006652f, 2.023173f, -1.091263f, -1.524272f, 0.912346f, -11.521334f, 2.747303f, -1.743787f, 2.289277f, -1.063748f, 3.712973f, 1.750622f, 1.442713f, -0.894677f, 0.697495f, -0.462197f, -1.695147f, -0.004005f, 0.327888f, -0.098935f, -0.076914f, -0.182457f, 0.073830f, 0.232466f, -0.000609f, 0.150011f, 0.043101f, -0.108267f, 0.286715f, 0.495432f, -0.026086f, 0.149856f, -0.330953f, -0.098263f, -0.243696f, -0.076753f, 0.479232f, -0.029122f, 0.114114f, -0.078637f, 0.609714f, 0.049056f, -0.017869f, -0.027780f, -0.076631f, -0.157841f, -0.022781f, -0.044794f, -0.000242f, -0.010319f, -0.052661f, 0.194421f, -0.052609f, 0.156462f, 0.057586f, -0.009059f, 0.018781f, 0.122130f, 0.020475f, 0.172852f, 0.026115f, 0.118092f, -0.079056f, -0.455436f, 0.064883f, -0.007753f, 0.160876f, -0.105608f, -0.073413f, -0.674499f, 0.058932f, -0.031393f, 0.092511f, -0.104346f, -0.207381f, 0.175934f, 0.076795f, -0.143119f, -0.171397f, -0.874819f, 0.239688f, 0.519704f, 0.039312f, -0.429460f, -0.213805f, 0.045526f, 0.222088f, -0.128653f, -0.036021f, 0.074927f, -0.212671f, 0.331546f, -0.467348f, 0.362495f, 0.128091f, 0.029935f, 0.721412f, 0.315883f, 0.162502f, -0.069524f, 0.105766f, -0.023814f, -0.025978f, -0.027578f, 0.134195f, 0.001246f, -0.011136f, -0.068101f, -0.258722f, 0.350249f, 0.068551f, 0.001092f, -0.094275f, 0.053487f, 0.064119f, -0.774547f, -0.072324f, 0.267891f, -0.007282f, 0.077150f, 0.196365f, -0.303027f, -0.066351f, 0.022173f, -0.093222f, 0.105847f, 0.230441f, 1.088236f, 0.242178f, -0.006257f, 0.634420f, 0.032161f, 0.076143f, 0.320326f, -0.184303f, -0.090301f, -0.049316f, 0.429801f, -0.186438f, -0.800594f, -0.192636f, 0.825305f, -0.155274f, -0.173114f, 0.493912f, 0.027993f, 0.315707f, 0.066455f, 0.868513f, 0.442263f, -0.152931f, 0.012430f, 0.054874f, 0.053982f, -0.348601f, 0.066808f, 0.128251f, 0.145622f, 0.662434f, 0.303651f, 0.644408f, 0.085098f, 0.111192f, 0.350837f, -0.239238f, 0.289234f, -0.246055f, 0.034913f, 0.112853f, 0.219904f, -0.327231f, -0.894580f, 0.054734f, -0.125739f, -0.083150f, 0.475435f, 0.318547f, 0.544406f, -0.377647f, -0.140913f, 0.201916f, -0.262144f, 0.002941f, 0.041153f, -0.723056f, 2.362029f, -0.785960f, -1.786906f, 1.637343f, 1.845774f, 0.682215f, -0.528573f, 0.703177f, -1.546749f, 0.936771f, -7.256820f, -0.373249f, -2.760067f, -0.855028f, -6.938349f, -4.464047f, -5.381831f, 0.158454f, -3.342981f, -4.581683f, 1.179708f, -8.541859f, -1.829239f, 1.676834f, -2.240949f, -2.520705f, -0.574722f, -1.279345f, 1.729857f, -1.490846f, 0.189609f, -0.099513f, -4.776670f, 8.810628f, -3.019059f, -0.278430f, -4.936595f, -1.748169f, 5.819527f, 1.626534f, 1.473836f, -2.058605f, -1.788587f, 1.052585f, -4.709628f, 1.060872f, -2.687552f, 0.152857f, -2.131504f, -3.883676f, 0.594749f, 1.079194f, 0.003740f, -2.518430f, -2.858827f, 0.579673f, 0.425415f, 1.555503f, -4.999813f, -0.347657f, -0.804760f, -1.317485f, -0.831032f, 1.668626f, 1.965875f, -0.790363f, 3.533299f, -2.123360f, -1.949690f, -1.518421f, 3.607047f, 0.754474f, -3.080350f, -1.620912f, -1.903342f, 1.378808f, -0.401201f, -1.556483f, -1.951897f, -1.908367f, -0.100467f, -5.539380f, -2.426261f, -0.259290f, -2.772972f, -0.949291f, 1.024363f, -0.732228f, 6.898531f, -2.236750f, -2.155085f, 0.230253f, -0.732831f, -2.092611f, -2.435689f, -2.776152f, 1.024797f, -5.686258f, 2.091738f, -0.447192f, 5.013073f, 0.138100f, -2.539713f, 1.371480f, -2.865843f, 3.140652f, 2.151665f, -0.846399f, -2.675390f, 3.260902f, -1.393307f, -5.853171f, -0.127945f, -0.441469f, -2.263028f, 0.917478f, 0.153856f, -0.896434f, -1.175957f, -1.063523f, 1.470267f, 0.595936f, 1.898966f, -3.767774f, -3.765866f, -0.841164f, 2.651557f, -2.003155f, 2.355649f, -2.767146f, -0.193692f, -5.946811f, -1.135472f, -1.569098f, 1.225482f, -1.265015f, 0.396192f, -1.931526f, 1.638598f, 0.292303f, 0.713963f, -1.824527f, -0.422376f, -0.189044f, 8.125340f, 2.246714f, 0.329248f, 0.374925f, -4.096528f, -1.269457f, 2.798893f, 0.095659f, 2.190181f, -1.387838f, -1.329116f, 0.122095f, -10.460686f, 2.237994f, -1.410371f, 2.685246f, -1.157966f, 2.955607f, 2.182054f, 1.057749f, -0.834425f, 0.800699f, -1.051608f, -2.006386f, 0.112367f, -0.056379f, 0.141778f, -0.034211f, 0.644012f, -0.055486f, 0.276303f, 0.226299f, 0.039136f, 0.031728f, -0.026185f, -0.366090f, -0.609979f, -0.469550f, 0.004562f, 0.316790f, -0.024535f, -0.135146f, -0.386711f, -0.304106f, 0.452072f, -0.085209f, -0.036389f, -0.550354f, 0.383453f, -0.198052f, -0.080984f, 0.121946f, -0.055043f, -0.007371f, -0.177906f, -0.319552f, -0.048902f, 0.023558f, -0.054011f, -0.280936f, -0.160998f, 0.060681f, 0.019515f, -0.001835f, 0.031891f, 0.300091f, -0.130330f, 0.055740f, -0.160679f, -0.073934f, -0.412978f, 0.175861f, 0.003784f, 0.206706f, -0.059276f, 0.056870f, -0.178968f, 0.187962f, 0.196592f, 0.056272f, 0.027647f, 0.112870f, 0.012312f, 0.317053f, 0.269134f, 0.249426f, 0.117106f, -0.071480f, -0.044225f, 0.026523f, -0.168371f, 0.274404f, 0.145079f, -0.053243f, -0.047521f, 0.048338f, -0.065136f, -0.547301f, -0.603737f, 0.102078f, 0.345347f, 0.158123f, -0.026331f, -0.465299f, -0.056183f, 0.453184f, -0.017539f, 0.048681f, -0.023849f, 0.154425f, 0.092381f, 0.186672f, 0.103080f, -0.040211f, -0.077104f, -0.087928f, 0.171873f, -0.001520f, -0.037376f, 0.065973f, 0.047331f, 0.047880f, -0.977362f, -0.035590f, 0.104637f, 0.031352f, 1.002078f, 0.073822f, -0.500099f, 0.010416f, 0.040751f, 0.068723f, -0.302665f, 0.089790f, 0.269108f, 0.299642f, -0.016241f, 0.102990f, 0.007810f, 0.007075f, 0.896687f, -0.268953f, 0.669800f, -0.161859f, 0.278956f, -0.161540f, 0.453240f, -0.032154f, -0.622887f, -0.437693f, 0.044193f, -0.487451f, -0.320037f, 0.025149f, -0.070823f, 0.742160f, 0.303982f, 0.089301f, -0.065433f, -0.199507f, -0.161534f, 0.325500f, -0.003531f, -0.596991f, -0.066144f, 0.284010f, -0.138472f, 0.210050f, 0.047273f, -0.021230f, 0.601465f, -0.524825f, 0.404778f, -0.045405f, 0.063559f, -0.130513f, -0.027464f, -0.350012f, -0.945766f, 0.112647f, -0.195617f, 0.007832f, 0.352901f, -0.241117f, 0.269071f, 0.049987f, 0.054688f, 0.071727f, -0.672181f, 0.139956f, -0.032943f, -0.321366f, 2.394562f, -0.326147f, -1.323893f, 1.230214f, 2.529146f, 0.647345f, -0.933637f, 1.181927f, -1.667494f, 1.863160f, -8.261060f, -1.130223f, -2.551347f, -0.396954f, -6.615499f, -4.632388f, -5.105630f, -1.446043f, -2.962945f, -4.857708f, 0.682311f, -9.212035f, -0.766213f, 1.522520f, -1.474540f, -2.298348f, -0.427631f, -1.304157f, 1.823499f, -2.213068f, -0.097656f, 0.099319f, -4.209213f, 9.176694f, -3.768807f, 0.088180f, -4.975137f, -2.478075f, 5.984450f, 2.685202f, 1.522301f, -1.726424f, -1.801721f, 1.193952f, -4.629826f, 1.267767f, -3.172210f, 0.119414f, -3.166180f, -5.077754f, 0.690390f, 1.600786f, 0.287500f, -2.101692f, -3.055090f, 0.762562f, 0.302228f, 0.874798f, -4.818571f, -0.527039f, -0.886960f, -1.215678f, -0.145198f, 0.949003f, 1.568604f, -0.944294f, 3.010016f, -2.280873f, -2.684937f, -1.133118f, 3.729040f, 0.490381f, -2.912756f, -1.155395f, -3.030438f, 1.550190f, -0.357853f, -1.918392f, -1.487654f, -1.945502f, -0.492940f, -5.844829f, -2.429837f, -0.462153f, -1.704665f, 0.151613f, 0.540925f, -1.074835f, 7.003855f, -1.785313f, -1.325513f, 0.410032f, -0.472441f, -1.697784f, -2.251998f, -2.311747f, 0.932315f, -5.933586f, 2.082146f, -0.677185f, 5.071974f, 0.272441f, -2.721356f, 2.379241f, -2.207951f, 3.484189f, 1.909878f, -0.514258f, -3.236412f, 2.728286f, -1.620212f, -5.033302f, -0.117030f, 0.073403f, -1.861828f, 1.309303f, -0.192139f, -0.898001f, -2.170493f, -0.523081f, 1.697854f, -0.122149f, 0.870361f, -4.085630f, -3.052782f, -0.783021f, 3.241560f, -2.183426f, 2.121003f, -2.689659f, 0.015763f, -5.389631f, -0.675823f, -1.625964f, 1.508486f, -1.142135f, 0.899173f, -0.616434f, 1.015265f, 0.069804f, -0.130364f, -2.991503f, 0.142531f, -0.082145f, 7.673137f, 1.903673f, 0.122569f, -0.227088f, -3.637560f, -1.788509f, 2.066218f, 0.335239f, 2.374923f, -2.174980f, -0.648910f, -0.319485f, -9.141105f, 1.735773f, -0.532893f, 1.868955f, -1.186760f, 3.041113f, 2.287692f, 0.536260f, -0.982462f, 0.483792f, -1.131039f, -2.011700f, -0.024942f, 0.229810f, 0.134570f, 0.046921f, -0.300708f, -0.300378f, -0.136386f, -0.245070f, 0.422880f, -0.067098f, -0.130465f, -0.551052f, 0.334242f, -0.000940f, 0.061110f, -0.521847f, 0.184763f, -0.073660f, -0.696362f, -0.032420f, -0.486976f, 0.021537f, 0.029875f, -0.153154f, 0.195609f, -0.055203f, -0.030042f, 0.030004f, -0.084070f, -0.012446f, -0.144623f, -0.312092f, -0.006382f, -0.117604f, -0.175546f, -0.334796f, -0.178536f, 0.096907f, -0.053978f, -0.083269f, -0.003548f, -0.045804f, 0.019319f, -0.051794f, 0.196256f, -0.105279f, 0.391098f, -0.186563f, 0.045859f, -0.151764f, -0.043999f, -0.148868f, 0.221548f, 0.014584f, -0.415440f, 0.161103f, 0.116131f, -0.480175f, -0.022012f, -0.057435f, 0.240407f, -0.318149f, -0.035288f, 0.195455f, -0.076888f, -0.050672f, -0.187508f, -0.128351f, 0.144006f, 0.147110f, 0.038480f, -0.022654f, -0.077539f, -0.397168f, -0.081573f, -0.136468f, 0.477176f, 0.191689f, -0.028296f, 0.863340f, -0.455713f, 0.379757f, -0.023223f, 0.071306f, -0.060155f, -0.075522f, 0.039683f, -0.023470f, -0.092688f, 0.001147f, 0.342002f, -0.113131f, 0.245186f, -0.007249f, 0.042964f, -0.014485f, -0.071186f, -0.199549f, -0.640390f, -0.001913f, 0.158891f, -0.018078f, -0.063726f, 0.043402f, -0.277439f, -0.132089f, -0.016090f, 0.142483f, -0.129496f, 0.060589f, 0.464097f, 0.145056f, -0.288434f, 1.101447f, -0.025433f, 0.110866f, 0.409075f, 0.330202f, -0.076682f, -0.122814f, -0.437939f, 0.044185f, 0.596716f, 0.436252f, -0.037397f, -0.271212f, -0.080388f, 0.514929f, 0.195650f, -0.743005f, 0.991810f, 1.167291f, 0.710840f, 0.109666f, -0.083590f, 0.252475f, 0.161357f, -0.563842f, -0.035763f, -0.458332f, 0.132225f, 0.268923f, 0.269338f, -0.413403f, 0.171030f, 0.100775f, 0.026485f, -0.158546f, 0.540559f, 0.293303f, 0.023481f, -0.013900f, 0.267650f, -0.833058f, 0.257796f, 0.053477f, -0.137448f, -0.065275f, -0.872569f, 0.568782f, 0.205685f, -0.210760f, 0.235558f, 0.238968f, 0.130150f, 0.071515f, -0.345146f, 0.171128f, 2.230355f, -0.341812f, -0.751427f, 0.695635f, 1.805121f, 0.169521f, -1.270280f, 0.572760f, -3.022040f, 2.516733f, -8.272233f, -0.864817f, -1.961125f, -1.109478f, -6.230344f, -5.797534f, -4.916065f, -3.066032f, -2.973922f, -5.083187f, 0.622139f, -8.440766f, -1.020235f, 0.929932f, -0.677411f, -3.553171f, 0.090343f, -1.499033f, 1.645030f, -1.767475f, -0.542547f, 0.017603f, -4.097331f, 9.576933f, -4.504723f, 0.137690f, -4.188141f, -2.577903f, 6.392643f, 3.860092f, 1.966536f, -1.005178f, -1.590005f, 1.711469f, -4.924683f, 0.402518f, -4.091898f, -0.058710f, -2.782602f, -5.346705f, 0.351438f, 1.567826f, 0.101714f, -1.394063f, -2.798662f, 1.012087f, -0.779575f, 0.547952f, -5.511660f, -1.130657f, -1.551942f, -1.352779f, 0.659362f, 1.330361f, 1.306399f, -1.972713f, 2.846941f, -1.613104f, -3.028448f, -1.424710f, 3.209160f, 0.976498f, -2.772740f, -0.376990f, -3.345957f, 1.500029f, -0.529529f, -1.540267f, -1.968600f, -2.009542f, 0.411349f, -5.300514f, -3.021508f, -0.010603f, -1.728186f, 0.985918f, 0.447771f, -1.246025f, 6.928659f, -2.420876f, -1.903932f, 0.732920f, 0.573908f, -1.362898f, -2.504467f, -3.031056f, 0.222365f, -4.640723f, 2.636688f, -1.398939f, 4.942653f, 0.853025f, -2.768966f, 2.388954f, -1.623459f, 4.041831f, 1.730166f, -1.022596f, -2.566918f, 3.173602f, -1.974111f, -4.711046f, 0.186559f, -0.849963f, -1.444340f, 0.760032f, 0.362519f, -1.188073f, -2.317998f, -0.115226f, 2.142052f, -0.328544f, 0.064646f, -3.638487f, -2.036291f, -0.615249f, 3.172283f, -1.957525f, 2.158554f, -3.567068f, 0.527664f, -5.440007f, -0.568671f, -1.626832f, 1.140661f, -1.041161f, 0.398203f, 0.004449f, 0.331792f, -0.238301f, -0.165046f, -3.541555f, -0.020586f, -0.366298f, 7.341754f, 1.743943f, 0.440057f, -0.426021f, -4.070797f, -2.038025f, 2.121293f, 0.419590f, 2.401507f, -2.377528f, 0.237915f, 0.523890f, -9.024975f, 0.814182f, -1.031467f, 1.764179f, -1.048119f, 2.938758f, 2.773387f, 0.259143f, -1.097174f, 1.132103f, -0.926188f, -1.722802f, 0.165426f, 0.043848f, -0.036151f, -0.324112f, -0.119797f, 0.497226f, 0.210046f, 0.201016f, -0.821140f, 0.005209f, 0.369747f, -0.131923f, 0.054707f, -0.121746f, 0.131331f, 0.330175f, -0.066438f, -0.091700f, -0.348540f, -0.250826f, -0.103489f, 0.219666f, -0.039621f, -0.529010f, -0.139155f, 0.327631f, 0.002258f, -0.070353f, -0.102801f, 0.119523f, -0.480779f, -0.443417f, -0.070200f, 0.004714f, -0.145143f, -0.126138f, 0.102450f, 0.362445f, 0.042561f, -0.054344f, -0.178432f, -0.356487f, 0.217643f, -0.008506f, -0.196001f, -0.151416f, -0.219895f, 0.015276f, 0.081169f, -0.026604f, -0.062204f, 0.176767f, 0.048486f, 0.066703f, 0.426565f, -0.105239f, 0.255966f, -0.128965f, 0.042548f, -0.145590f, -0.370968f, 0.140302f, -0.538197f, 0.001012f, -0.217254f, 0.057052f, -0.096489f, 0.253990f, 0.235160f, 0.065441f, -0.059997f, 0.068719f, -0.005689f, -0.296356f, 0.216421f, -0.074260f, 0.152169f, 0.196212f, -0.107902f, -0.306435f, 0.427923f, 0.155038f, -0.025624f, -0.130541f, 0.104827f, -0.115220f, -0.041437f, 0.215248f, 0.078044f, -0.019504f, 0.503367f, -0.173788f, 0.291796f, 0.272131f, -0.000921f, 0.032112f, 0.004372f, -0.461388f, -0.434996f, -0.033305f, 0.125103f, 0.064728f, 0.627235f, 0.104093f, -0.249708f, -0.017379f, 0.078086f, -0.109374f, 0.648273f, -0.016081f, -0.159136f, 0.351420f, -0.040263f, 0.412111f, 0.038788f, 0.518366f, 0.038100f, -0.364389f, 0.143539f, -0.145597f, -0.483482f, 0.010949f, 0.379545f, -0.425018f, -0.546507f, 0.224952f, 0.078594f, 1.157308f, 0.190609f, 0.669512f, -0.064097f, -0.641573f, 0.545204f, 0.205431f, -0.034085f, -0.076990f, -0.551105f, -0.660207f, -0.014248f, -0.554464f, -0.096059f, 0.214217f, -0.030115f, 0.133240f, 0.108029f, 0.086384f, 0.192271f, 0.023533f, 0.587163f, -0.451756f, 0.079385f, -0.012738f, -0.144732f, 0.132780f, -0.166560f, 0.028284f, 0.235695f, 0.035024f, -0.184712f, 0.282597f, 0.336739f, -0.558890f, 0.102445f, 0.371188f, 1.018285f, 0.013340f, 0.440481f, -0.102818f, 2.422805f, -0.375984f, -0.017839f, 0.523843f, 1.391162f, 0.433574f, -0.418273f, 0.835554f, -4.525043f, 2.921834f, -8.340348f, -0.154328f, -2.389440f, -1.136313f, -6.614049f, -6.316900f, -4.632843f, -2.804161f, -2.998344f, -5.230000f, 0.614870f, -8.395327f, -0.339976f, 1.917016f, -0.021012f, -3.183567f, 0.287154f, -1.619246f, 1.495242f, -1.720485f, -0.732737f, -0.064036f, -4.812116f, 10.089006f, -5.208804f, 0.316057f, -4.497322f, -1.985347f, 5.739989f, 4.741470f, 1.816105f, -0.607199f, -1.578344f, 2.035405f, -4.602214f, 0.149561f, -3.853623f, -0.124990f, -2.268527f, -6.412545f, 0.316498f, 2.267064f, 0.089981f, -1.368539f, -2.470513f, 1.008366f, -0.831784f, 0.433017f, -5.748306f, 0.410812f, -1.880970f, -0.344045f, 0.527040f, 0.631340f, 2.135087f, -1.131378f, 1.986712f, -1.576657f, -3.380736f, -1.753943f, 3.602467f, -0.567733f, -1.691421f, -0.730272f, -3.638592f, 1.148465f, -0.404789f, -0.896638f, -1.835794f, -0.701224f, 0.063980f, -5.141193f, -2.237227f, -0.183213f, -2.291684f, 0.868296f, 0.731052f, -1.342817f, 6.072243f, -1.763322f, -1.618789f, 0.770295f, 0.477610f, -1.700531f, -2.910000f, -2.242033f, 0.063531f, -3.915536f, 2.901869f, -1.570148f, 3.183513f, 0.378393f, -2.627674f, 2.492377f, -1.272141f, 4.288459f, 0.800190f, -0.673429f, -2.789107f, 3.115911f, -1.497219f, -4.178209f, 0.234192f, -1.940396f, -1.240942f, 0.026381f, -0.021404f, -1.390959f, -2.491892f, 0.894359f, 2.474685f, 0.047709f, 0.156087f, -3.050518f, 0.044303f, -0.623853f, 2.657010f, -1.376684f, 2.697521f, -4.648670f, 0.777403f, -5.042478f, -0.518290f, -1.913929f, 0.859301f, -1.435368f, 0.583864f, 0.372055f, 0.992021f, -0.435142f, -0.516995f, -2.887176f, 0.186446f, -0.354189f, 6.439875f, 1.684411f, 0.265212f, -0.603857f, -3.507912f, -2.595785f, 1.997162f, 0.560623f, 1.853873f, -1.858182f, 0.664560f, 0.642237f, -8.676749f, 0.580467f, -1.217283f, 1.009371f, -1.159534f, 2.642438f, 3.182056f, -0.254216f, -1.241437f, 1.457828f, -0.998164f, -1.207439f, 0.052643f, -0.101038f, -0.098537f, 0.315168f, -0.054901f, -0.706333f, -0.428021f, 0.198749f, -0.312260f, 0.003650f, 0.171662f, -0.089295f, 0.162787f, -0.381262f, 0.031173f, -0.000559f, -0.106920f, 0.327988f, 0.058953f, -0.608925f, 0.101184f, 0.336396f, 0.054054f, 0.897403f, -0.307592f, -0.552637f, 0.161772f, -0.214704f, -0.020429f, -0.319680f, -0.256993f, -0.139758f, 0.160423f, -0.100855f, 0.016166f, 0.151369f, 0.154183f, 0.194513f, -0.023682f, -0.096960f, 0.064590f, 0.177946f, -0.282932f, 0.090594f, 0.416676f, 0.091801f, -0.128659f, 0.044998f, -0.137802f, 0.031321f, -0.158923f, -0.101555f, 0.289096f, 0.143661f, 0.300718f, 0.047516f, 0.047704f, -0.151276f, -0.021295f, 0.181449f, 0.337570f, 0.510539f, 0.524313f, -0.079656f, -0.471443f, -0.013354f, 0.010433f, 0.289722f, 0.291290f, 0.024432f, 0.015062f, -0.201750f, 0.138099f, 0.090432f, -0.397993f, 0.171439f, 0.850721f, 0.276823f, 0.044718f, -0.246551f, -0.993267f, 0.408582f, -0.022415f, -0.020555f, 0.058656f, -0.170870f, 0.102690f, 0.169089f, 0.083998f, -0.017503f, 0.153797f, -0.321823f, 0.415429f, 0.171867f, -0.030858f, 0.031256f, 0.017224f, -0.309562f, 0.026610f, -0.034793f, 0.302308f, 0.087082f, -0.449574f, 0.071304f, -0.120041f, 0.099627f, 0.091785f, -0.203386f, -0.223239f, -0.122498f, 0.480556f, 0.257898f, 0.047618f, -0.098493f, 0.105614f, -0.172086f, -0.270668f, 0.442617f, 0.097767f, 0.438237f, -0.870468f, -0.064763f, 0.394044f, -0.038792f, -0.031933f, -0.269475f, -0.082847f, -0.419899f, -0.068177f, 0.770785f, -0.207432f, 0.231886f, 0.764274f, 0.284099f, 0.158050f, -0.396464f, 0.315918f, 0.470534f, 0.005595f, 0.008443f, 0.057463f, 0.211664f, 0.400569f, -0.114651f, 0.102756f, 0.043259f, -0.074971f, -0.259310f, 0.400202f, -0.555250f, -0.048807f, -0.036110f, -0.093663f, -0.118304f, -0.340179f, 0.151639f, 0.005289f, -0.094254f, -0.085089f, 0.554452f, 0.404460f, 0.089029f, -0.011566f, 0.263471f, -0.106986f, 0.121551f, 0.077506f, -0.177789f, 1.808102f, -0.583693f, 0.787168f, -0.015147f, 1.362806f, -0.268083f, -0.278759f, 1.290779f, -3.546822f, 3.321644f, -7.658375f, 0.124012f, -2.930504f, -0.958263f, -5.974203f, -7.668425f, -4.188180f, -3.032463f, -3.328873f, -4.287366f, 0.698171f, -8.795413f, 0.326724f, 1.826927f, 0.503964f, -2.474391f, 0.871566f, -1.941790f, 0.952550f, -1.862120f, -1.207640f, -0.022267f, -4.361742f, 11.598266f, -5.130341f, -0.349036f, -3.937603f, -2.297175f, 6.136845f, 5.088191f, 1.416013f, -1.459907f, -1.150380f, 1.927018f, -4.224700f, -0.002532f, -3.613950f, 0.215956f, -2.255152f, -7.213681f, 1.141128f, 1.950669f, 0.242676f, -0.247482f, -2.107104f, 1.177038f, -0.291439f, -0.402168f, -4.992383f, 0.187446f, -2.295091f, 0.109976f, 0.578435f, 0.354201f, 2.905962f, -0.826238f, 2.246958f, -1.646088f, -3.515282f, -1.678658f, 3.150550f, 0.445442f, -1.250451f, -1.069695f, -3.023142f, 1.043422f, -0.941799f, -0.522610f, -2.091310f, -0.567834f, 0.106402f, -4.293443f, -1.610357f, -0.306076f, -1.387402f, 0.857214f, 1.724835f, -1.004912f, 5.535627f, -1.144340f, -1.939665f, 1.780935f, 1.183732f, -1.310974f, -2.702106f, -1.613601f, -0.218802f, -2.860808f, 2.843367f, -1.036130f, 3.248399f, -0.241114f, -2.200834f, 2.258981f, -0.979750f, 4.867941f, 0.892852f, -0.495817f, -2.800528f, 3.046021f, -2.123865f, -3.764139f, 0.318612f, -1.080537f, -1.679989f, -0.574567f, -0.057469f, -0.739685f, -2.554856f, 1.293581f, 2.049285f, -0.256242f, -0.891907f, -2.006107f, 0.794777f, -0.326284f, 2.004075f, 0.086378f, 2.667393f, -4.037009f, 1.660400f, -4.949724f, -0.162268f, -2.257674f, 0.212340f, -1.202999f, 0.149704f, -0.054434f, -0.303882f, -0.065671f, -1.115624f, -2.927033f, 0.029361f, -0.279938f, 5.671357f, 1.202404f, 0.149599f, -1.578314f, -3.435869f, -2.764707f, 1.969690f, 0.546551f, 1.728154f, -2.125336f, 1.379941f, 0.636397f, -8.526650f, 0.092449f, -0.850340f, 0.776641f, -1.185290f, 2.717619f, 3.071607f, -0.517034f, -0.777856f, 1.488056f, -0.481587f, -1.039115f, 0.203859f, 0.424664f, 0.071028f, 0.405817f, -0.027546f, 0.057070f, -0.433051f, -0.023701f, -0.043578f, 0.109627f, 0.411840f, 0.386242f, -0.348709f, 0.023418f, -0.015382f, -0.020645f, 0.052626f, 0.317305f, -0.084996f, 0.128434f, -0.198106f, 0.168606f, -0.108560f, -0.124392f, -0.205466f, 0.024230f, -0.061246f, 0.019125f, 0.134044f, 0.111309f, -0.030095f, -0.424887f, 0.074185f, -0.023891f, -0.082436f, -0.124877f, 0.072337f, -0.024006f, 0.045086f, -0.097702f, -0.254454f, 0.090748f, 0.145681f, -0.065391f, -0.003277f, 0.048753f, -0.271876f, 0.148658f, 0.055907f, -0.160866f, 0.085411f, 0.112881f, -0.366733f, 0.132972f, -0.156528f, -0.011459f, 0.008129f, 0.019812f, -0.040669f, -0.007586f, 0.286269f, -0.527833f, -0.944953f, -0.055622f, 0.146219f, 0.055952f, -0.308397f, -0.093560f, 0.148222f, 0.128109f, 0.063711f, -0.224024f, 0.004844f, 0.103144f, -0.272016f, 0.343942f, 0.825803f, 0.350053f, -0.102604f, 0.684533f, 0.456939f, -0.003972f, 0.005150f, 0.427572f, 0.079996f, -0.272140f, 0.006556f, 0.445149f, -0.020283f, -0.066284f, 0.104154f, -0.101721f, 0.360634f, -0.002626f, 0.036931f, 0.007932f, -0.047660f, -0.184782f, 0.169384f, -0.015932f, 0.108780f, -0.000739f, 0.336094f, 0.121309f, -0.344078f, 0.067542f, -0.071180f, 0.059532f, -0.501768f, -0.042910f, -0.489560f, 0.177899f, -0.057811f, -0.323056f, -0.035065f, -0.656708f, -0.105341f, 0.577892f, 0.092932f, 0.245800f, -0.099612f, -0.087045f, 0.240375f, -1.070738f, -0.772600f, 0.134075f, -0.144615f, -0.405906f, -0.017076f, -0.335102f, 0.053193f, 0.350078f, 0.465954f, 0.405408f, 0.033425f, 0.326144f, 0.327679f, 0.542032f, 0.114055f, 0.091777f, -0.258770f, 0.137083f, 0.202115f, -0.220531f, 0.220106f, 0.033881f, -0.010163f, -0.431275f, 0.631122f, -0.144774f, -0.104363f, 0.017682f, 0.047145f, -0.056753f, -0.414131f, 0.230372f, 0.158985f, 0.087367f, 0.167605f, 0.363192f, 0.284536f, -0.176948f, 0.220817f, 0.132200f, 0.245900f, 0.125808f, 0.168575f, -0.039178f, 1.831116f, 0.251023f, 1.368389f, 0.377350f, 1.353331f, -0.291349f, -0.066707f, 0.521781f, -3.016463f, 3.001614f, -7.922184f, -0.003312f, -3.238805f, -0.857418f, -4.611715f, -7.826968f, -3.818922f, -2.747846f, -2.923542f, -4.500118f, 1.376428f, -7.974990f, 0.320033f, 1.607598f, -0.085828f, -2.544747f, 1.731196f, -2.003485f, 0.586383f, -2.502785f, -1.173800f, -0.093250f, -4.285718f, 11.437618f, -4.943940f, -0.263137f, -3.692042f, -2.952505f, 5.783134f, 5.278409f, 1.443802f, -3.122250f, -1.328419f, 1.713303f, -3.358220f, -0.741619f, -3.706264f, 0.152812f, -2.403139f, -7.816927f, 0.577125f, 1.516358f, -0.152585f, 0.166388f, -1.999078f, 0.280378f, -0.808211f, -1.093639f, -4.084531f, 0.446754f, -3.035563f, 0.510695f, 1.192189f, 0.188285f, 1.701607f, -1.266566f, 2.267665f, -0.885417f, -2.024571f, -1.434585f, 3.164822f, 0.061381f, -0.674089f, -1.848131f, -3.452398f, 2.063993f, -0.923542f, -0.512103f, -1.806447f, 0.053772f, -0.097155f, -4.214291f, -2.448647f, 0.478546f, -1.521879f, 0.616669f, 0.587087f, -1.120164f, 5.661074f, -1.128719f, -2.661437f, 1.205026f, 0.065554f, -0.910061f, -2.565425f, -1.305868f, -1.437551f, -1.236467f, 3.143110f, -0.198031f, 3.081346f, -0.661255f, -1.798064f, 1.535009f, -0.558558f, 4.783774f, 1.633255f, -0.262603f, -2.667713f, 3.287460f, -2.842486f, -4.057727f, 0.658088f, -0.655026f, -1.054386f, -1.552896f, -0.075912f, -1.607852f, -2.996634f, 1.105707f, 2.036345f, -1.481452f, -1.327472f, -1.986518f, 2.099347f, -0.106827f, 1.735556f, 0.669464f, 2.788583f, -4.025609f, 1.286911f, -4.293051f, 0.386468f, -1.497640f, 1.084344f, -0.762468f, 0.071708f, -0.751726f, -0.271252f, 0.015607f, -1.254872f, -3.112388f, 0.321897f, -0.450642f, 5.452252f, 0.416409f, 0.441228f, -1.418080f, -3.337055f, -2.687330f, 2.006337f, 0.364257f, 2.123587f, -2.643208f, 1.015307f, 1.314429f, -7.336137f, 0.016843f, -0.671077f, -0.042444f, -0.257991f, 2.958574f, 2.574167f, -1.062442f, -0.853967f, 1.438437f, -0.397936f, -1.007427f, 0.099233f, 0.189511f, -0.014736f, 0.229607f, -0.175348f, -0.156564f, 0.782363f, 0.082512f, 0.186006f, 0.089730f, -0.137369f, -0.419760f, 0.024118f, -0.234965f, -0.025412f, -0.146109f, 0.020325f, 0.044478f, -0.027990f, -0.104072f, 0.067535f, 0.201963f, 0.052715f, 0.106836f, 0.257015f, 0.127965f, 0.025867f, -0.298037f, -0.139293f, 0.024816f, -0.370025f, -0.424843f, -0.087943f, -0.066016f, -0.062351f, -0.308869f, -0.020801f, 0.193612f, -0.056669f, -0.075079f, -0.124734f, 0.231164f, 0.115165f, 0.070925f, 0.018392f, -0.054227f, -0.313388f, -0.074709f, 0.178043f, 0.044285f, 0.009839f, -0.125573f, -0.554483f, -0.062507f, 0.130027f, 0.020158f, 0.184119f, 0.035979f, -0.058651f, -0.238494f, 0.112304f, -0.469618f, 0.239341f, 0.068064f, 0.040424f, 0.054503f, -0.174124f, 0.104406f, 0.550404f, -0.028569f, -0.042667f, -0.226080f, -0.006500f, 0.063686f, -0.225555f, 0.426456f, 0.383593f, 0.248630f, -0.044459f, -0.548701f, -0.130542f, -0.186954f, -0.025216f, 0.379073f, -0.012596f, 0.050442f, 0.305453f, 0.196054f, 0.012514f, -0.099961f, 0.073208f, -0.306089f, 0.206383f, -0.172609f, -0.025561f, -0.011326f, 0.046429f, -0.260075f, 0.372590f, -0.081034f, 0.181113f, 0.087758f, -0.286246f, -0.058211f, -0.443501f, -0.018009f, -0.016055f, -0.211959f, 0.339836f, -0.025939f, 0.241141f, 0.239245f, -0.378464f, -0.214534f, 0.108900f, -0.426615f, -0.628990f, 0.544422f, 0.221129f, 0.014820f, 0.678117f, 0.070138f, -0.219200f, 0.211819f, -0.085069f, 0.446715f, -0.046315f, -0.175553f, -0.131207f, -0.900883f, -0.152179f, 0.257693f, 0.640566f, 0.555182f, 0.113314f, 0.372749f, -0.427912f, -0.157057f, -0.059191f, -0.279624f, -0.207522f, 0.642673f, 0.298448f, 0.118234f, -0.011460f, 0.040909f, 0.214766f, -0.261319f, 0.275071f, -0.629738f, 0.055189f, -0.180210f, 0.189910f, -0.068650f, 0.344961f, 0.086905f, -0.276139f, -0.086584f, -0.095967f, 0.406137f, 0.324130f, -0.137721f, -0.131201f, 0.069188f, 0.424453f, -0.031717f, 0.071829f, 0.201105f, 1.934984f, 0.750643f, 1.302868f, 0.474091f, 0.982918f, -0.040742f, 0.551955f, 0.312267f, -2.527023f, 3.555932f, -9.388928f, -0.067678f, -4.065543f, -0.275968f, -5.001459f, -7.870026f, -3.797309f, -1.991124f, -2.922542f, -5.002981f, 2.168747f, -8.645363f, 0.018537f, 2.356535f, 0.224473f, -2.485287f, 3.026349f, -2.645499f, -0.351097f, -3.142872f, -1.063628f, -0.226948f, -4.567716f, 11.147864f, -4.276405f, 0.052266f, -4.144169f, -3.056792f, 5.646224f, 5.535358f, 1.279491f, -3.188200f, -1.245337f, 1.327946f, -3.390711f, -1.222509f, -3.499844f, 0.181155f, -2.019530f, -8.135975f, 0.758980f, 1.143665f, 0.278947f, 0.111022f, -2.799772f, -0.508442f, -1.000833f, -1.150245f, -4.357467f, 0.009565f, -3.755999f, 1.395129f, 1.591116f, -0.082451f, 1.236802f, -1.774282f, 0.607755f, -1.052263f, -1.691073f, -0.383534f, 3.485189f, 0.336190f, -0.412370f, -1.559403f, -2.166775f, 1.177759f, -0.354275f, -0.399928f, -1.436595f, 0.270021f, -0.153772f, -3.290470f, -3.068376f, 0.563512f, -0.491560f, -0.125298f, 0.649032f, -0.093270f, 5.247092f, -1.110191f, -2.474427f, 1.311758f, 0.808406f, -1.375321f, -1.968579f, -0.268932f, -1.403326f, 0.897513f, 3.411099f, -0.340526f, 1.692011f, -0.660406f, -1.947395f, 1.282613f, -0.313625f, 4.379681f, 1.433766f, 0.089152f, -2.953644f, 3.164075f, -2.731815f, -2.856034f, 0.541666f, -1.109352f, -1.074532f, -0.668575f, -0.598022f, -1.748114f, -2.640158f, 1.674772f, 1.600299f, -0.789784f, -1.189738f, -1.081723f, 2.426812f, 0.612206f, 2.570143f, -0.034468f, 2.954411f, -3.593796f, 1.131683f, -3.881773f, 0.225116f, -1.534315f, 0.547524f, -0.797664f, -0.440714f, -1.208034f, -0.403399f, 0.397757f, -1.855443f, -4.112415f, 0.039434f, -0.524667f, 5.574165f, 0.223662f, 0.371435f, -2.061767f, -2.942542f, -3.348844f, 1.300082f, -0.204209f, 1.626777f, -3.163251f, 1.623345f, 1.020388f, -6.389957f, -0.278825f, 0.244058f, -0.440561f, 0.071207f, 2.460754f, 2.791490f, -1.593312f, -0.962682f, 2.056669f, -0.242501f, -1.701792f, -0.133906f, 0.115323f, -0.008721f, -0.139644f, -0.057089f, -0.395032f, -0.427185f, 0.030832f, 0.585636f, 0.096430f, 0.269110f, -0.155494f, -0.258346f, 0.130552f, 0.035983f, -0.193449f, -0.108964f, -0.037231f, 0.186921f, -0.398424f, 0.049656f, -0.096250f, 0.002764f, 0.209503f, 0.372487f, -0.607960f, -0.207681f, -0.100217f, -0.230135f, 0.050040f, 0.118708f, -0.525947f, 0.011695f, -0.084972f, -0.176053f, -0.320536f, 0.207014f, 0.388255f, -0.139142f, -0.082331f, 0.223962f, -0.095943f, -0.783332f, 0.020445f, 0.217344f, 0.012769f, 0.150268f, -0.238943f, -0.227535f, -0.301264f, -0.063366f, 0.157010f, -0.289295f, -0.031296f, 0.442575f, 0.035561f, 0.361759f, -0.080472f, 0.049286f, 0.242652f, -0.029901f, 0.771910f, 0.415689f, 0.091741f, 0.095749f, -0.040824f, -0.228611f, -0.104798f, 0.100555f, -0.031134f, -0.110868f, -0.204244f, 0.000474f, 0.354784f, -0.536592f, -0.074425f, 0.494064f, 0.130464f, 0.051411f, 0.224902f, -0.498472f, -0.068915f, -0.004105f, -0.163301f, 0.206867f, 0.001908f, -0.092191f, -0.209458f, 0.003928f, -0.000516f, -0.190872f, -0.322892f, 0.268496f, -0.177916f, -0.073407f, 0.012564f, -0.023278f, -0.558220f, -0.169969f, -0.012838f, 0.084804f, 0.008612f, 0.502612f, -0.022816f, -0.259679f, 0.112794f, -0.099045f, -0.585654f, -0.892141f, -0.051896f, 0.479068f, 0.208014f, -0.322198f, -0.185845f, -0.114114f, 0.114194f, -0.223972f, -0.234586f, -0.034822f, 0.175023f, 0.505978f, -0.120141f, -0.813963f, -0.627374f, -0.340916f, 0.139706f, -0.018803f, 0.164306f, -0.255332f, 0.107878f, -0.463057f, 0.057024f, 1.093900f, 0.457647f, -0.077027f, 0.106132f, -0.091619f, -0.268047f, -0.094998f, -0.008946f, -0.555419f, 0.874850f, -0.048764f, 0.208633f, 0.064166f, -0.122882f, 0.505962f, -0.393951f, 0.393071f, -0.197582f, 0.191485f, 0.016820f, -0.025542f, 0.215143f, -0.010419f, 0.002655f, 0.347400f, -0.039571f, -0.472206f, -0.225274f, 0.431384f, 0.057072f, -0.007636f, 0.886062f, -0.605600f, -0.004128f, -0.147088f, -0.371563f, 1.827788f, 1.739978f, 1.756549f, 1.139227f, 1.327291f, -0.327753f, 0.229535f, 0.063053f, -2.713301f, 4.079727f, -10.421120f, -0.099113f, -4.621637f, -0.255990f, -4.561741f, -7.671978f, -3.512702f, -2.187684f, -2.619158f, -5.172765f, 2.510213f, -7.696607f, 0.324740f, 1.624303f, 0.409136f, -3.664763f, 2.890467f, -3.162471f, -0.715381f, -3.468461f, -0.553127f, -0.151495f, -5.333260f, 11.717985f, -3.314087f, 0.093204f, -4.133480f, -3.461978f, 6.455860f, 5.764053f, 0.616254f, -3.347701f, -1.029875f, 0.763003f, -3.224511f, -2.056058f, -3.345009f, 0.065670f, -2.641775f, -7.878310f, 0.661660f, 1.322518f, 0.555146f, 0.709439f, -2.953815f, -0.887128f, -1.873050f, -1.958653f, -4.316490f, -0.118556f, -4.648878f, 0.876255f, 1.172593f, -0.530943f, -0.028271f, -3.486813f, 2.211729f, -1.399001f, -1.253864f, -0.945256f, 2.858456f, 0.263919f, -0.398908f, -0.432047f, -1.536353f, 0.617585f, -0.126442f, 0.156281f, -1.422896f, -0.546834f, -0.319934f, -1.340087f, -3.799845f, 0.492263f, -0.387221f, -0.750899f, 0.589388f, 0.005438f, 5.490906f, -2.346394f, -3.099076f, 1.335959f, 0.854746f, -1.498671f, -2.968549f, -0.882154f, -0.810590f, 1.310059f, 3.241208f, -0.984613f, 1.802825f, -0.215384f, -1.828206f, 1.068926f, -0.333418f, 5.147309f, 1.005042f, 0.252253f, -2.681318f, 2.750942f, -2.705512f, -2.597441f, 0.462672f, -0.711628f, -0.267138f, -1.164586f, -0.612626f, -1.903399f, -2.032795f, 1.713849f, 1.330092f, 0.237037f, -1.453111f, -0.896288f, 3.188288f, 0.825205f, 2.420656f, -0.658055f, 3.271948f, -2.889890f, 1.543238f, -3.331793f, 1.268459f, -1.051731f, 0.580192f, -0.715865f, 0.425952f, -1.147390f, -1.505452f, 0.006184f, -2.138769f, -4.268578f, 0.492582f, -0.593216f, 4.952392f, 0.138153f, 1.517797f, -2.539653f, -3.199008f, -3.061374f, 1.694443f, -0.121858f, 1.146232f, -3.067496f, 1.938272f, 0.416357f, -4.912411f, -0.884570f, 1.258416f, -1.075488f, 0.390709f, 1.762835f, 2.793953f, -2.038643f, -0.679492f, 2.604654f, 0.275447f, -1.727704f, 0.172881f, 0.165064f, -0.070084f, 0.260413f, 0.140194f, 0.351527f, -0.248816f, -0.152043f, 0.233062f, -0.140084f, -0.429255f, 0.402262f, -0.388607f, 0.024094f, -0.058226f, 0.305738f, -0.062668f, 0.345135f, 0.252861f, -0.034805f, -0.421900f, 0.158163f, -0.040137f, -0.783836f, -0.076792f, 0.405865f, -0.124313f, -0.090977f, -0.116898f, 0.161539f, -0.045979f, -0.301848f, -0.045672f, 0.077618f, -0.101752f, -0.363587f, 0.084708f, 0.255064f, 0.143996f, -0.022271f, 0.010940f, 0.086499f, -0.098448f, 0.148508f, 0.126576f, 0.015189f, -0.336993f, -0.133108f, -0.127023f, -0.094814f, 0.161821f, -0.689135f, 0.351559f, -0.001010f, 0.003325f, -0.247396f, -0.009136f, -0.061473f, 0.039337f, -0.062722f, 0.739431f, -0.836332f, -0.585386f, 0.088708f, -0.036626f, 0.027064f, -0.249272f, -0.424418f, 0.340407f, -0.137686f, -0.085674f, -0.046104f, -0.046487f, 0.180729f, -0.196730f, 0.300773f, 0.595097f, 0.042125f, 0.004702f, -0.411669f, 1.092760f, -0.381253f, 0.046467f, 0.776064f, 0.039461f, 0.038599f, 0.011320f, 0.414087f, 0.030920f, -0.007415f, -0.006440f, -0.209519f, 0.276416f, -0.137304f, -0.035463f, 0.010448f, 0.070613f, -0.165745f, -0.117396f, 0.013334f, 0.023181f, 0.068162f, 0.382695f, -0.029213f, -0.187990f, -0.110836f, -0.038849f, 0.122036f, 0.163577f, -0.167635f, 0.104265f, 0.230829f, 0.170302f, 0.341288f, -0.007191f, 0.381828f, -0.017699f, -0.793086f, 0.016257f, -0.068549f, 0.262066f, 0.032004f, -0.449820f, -0.713477f, 0.112966f, 0.182504f, -0.033522f, 0.406692f, 0.015279f, 0.328342f, -0.224698f, -0.067295f, 0.596609f, 0.080146f, 0.191777f, -0.340296f, 0.056758f, 0.192953f, 0.125878f, -0.499811f, -0.248184f, 0.169074f, 0.505747f, 0.279428f, 0.156810f, -0.099170f, 0.093948f, -0.552200f, 0.535527f, 0.054120f, 0.122313f, -0.031932f, -0.811986f, 0.089489f, 0.326453f, 0.034940f, 0.191417f, -0.063720f, -0.051192f, 0.136896f, 0.516875f, -0.052752f, 0.074622f, 1.277321f, 0.038148f, -0.045966f, -0.000394f, -0.469572f, 1.987660f, 2.620638f, 2.404279f, 1.838643f, 1.073963f, -0.203449f, 0.269372f, -0.132528f, -1.453497f, 3.950956f, -10.471691f, -0.273318f, -5.386797f, -0.561780f, -4.189603f, -7.556096f, -3.763620f, -3.383028f, -2.327015f, -4.463356f, 2.730178f, -7.824963f, 1.342915f, 1.328019f, -0.169419f, -4.179534f, 3.508605f, -3.359195f, -1.213567f, -4.097569f, 0.152539f, -0.647025f, -5.792538f, 11.200611f, -2.668562f, -0.563487f, -4.864174f, -3.025007f, 7.592116f, 6.531400f, 0.633159f, -4.147898f, -0.710577f, 0.620333f, -2.593106f, -2.456902f, -3.260879f, -0.071405f, -3.001126f, -7.641284f, 0.231968f, 1.247034f, -0.019270f, 1.006709f, -3.186298f, -1.016348f, -1.702504f, -2.413042f, -5.282122f, -0.857917f, -4.938735f, 0.995937f, 1.144587f, -0.996698f, -0.456096f, -4.380352f, 1.268729f, -0.855923f, -0.392040f, -0.328420f, 3.250670f, 0.003746f, 0.857392f, -0.568025f, -1.512142f, 1.268928f, -0.544039f, -0.484299f, -1.964285f, -0.597744f, -0.138149f, 0.109092f, -3.287025f, -0.765392f, -0.196385f, -0.955689f, -0.115134f, 0.261431f, 6.678232f, -2.669502f, -3.252142f, 0.647821f, 1.719838f, -1.888005f, -3.403881f, -0.795484f, -1.015791f, 2.005935f, 3.137604f, -1.498989f, 1.475005f, 0.373685f, -1.443964f, 1.235416f, -0.050328f, 4.756081f, 0.904330f, 0.459268f, -2.442967f, 2.259406f, -3.255668f, -1.889658f, -0.053826f, -1.129147f, 0.402995f, -1.002647f, -1.223080f, -1.903680f, -1.410048f, 2.757394f, 1.080410f, -0.983371f, -1.387214f, -0.580771f, 2.472606f, 0.516360f, 2.736278f, -0.720775f, 2.837978f, -1.568085f, 1.879278f, -2.590829f, 0.925566f, -0.578465f, 0.070165f, -0.060355f, 1.116480f, -1.752443f, -1.273859f, 0.147145f, -2.044812f, -3.476876f, 0.992476f, -0.084718f, 4.418453f, -0.218812f, 1.477122f, -2.942943f, -2.327097f, -2.848584f, 0.877449f, -1.064352f, 1.510255f, -3.507393f, 2.332547f, 0.561220f, -4.457077f, -0.819035f, 1.548266f, -1.449941f, 1.091469f, 1.946128f, 2.289171f, -2.586907f, -0.058341f, 2.424736f, 0.102221f, -1.977291f, 0.168079f, 0.135648f, -0.050864f, 0.304817f, 0.177255f, 0.315744f, 0.147753f, 0.060903f, -0.425488f, 0.013625f, 0.267689f, -0.013595f, 0.111366f, -0.146304f, 0.132038f, 0.369560f, -0.019984f, -0.356127f, 0.198514f, -0.012626f, 0.102665f, -0.036407f, 0.047509f, 0.028102f, 0.052043f, 0.222189f, 0.049651f, -0.060837f, 0.079577f, -0.204325f, -0.110768f, -0.548941f, -0.005369f, 0.007209f, 0.246430f, -0.156989f, 0.128298f, 0.294156f, 0.025838f, 0.031556f, -0.011805f, -0.502776f, -0.007802f, -0.093264f, 0.113778f, -0.039888f, -0.340989f, 0.134130f, -0.301155f, -0.034394f, 0.109582f, -0.320944f, -0.535085f, -0.175726f, -0.703332f, -0.121809f, -0.100863f, -0.092419f, 0.039937f, 0.344435f, -0.185392f, 0.146126f, 1.080708f, 0.051481f, -0.256269f, 0.068407f, 0.263171f, 0.175786f, -0.166556f, 0.204640f, -0.042389f, -0.084307f, -0.101642f, 0.235235f, -0.413846f, -0.372272f, 0.945225f, 0.161278f, -0.011980f, -0.873664f, -0.296306f, -0.346982f, -0.080743f, -0.143667f, -0.059481f, -0.069738f, -0.131974f, 0.145793f, -0.088049f, -0.049564f, 0.116580f, -0.461125f, 0.360222f, 0.123001f, 0.020169f, -0.001638f, 0.111582f, -0.119026f, -0.276787f, 0.089767f, 0.092495f, 0.027901f, 0.322767f, 0.086827f, -0.202728f, -0.012066f, 0.034007f, -0.350132f, 0.072058f, 0.072043f, 0.370134f, 0.137206f, 0.687689f, -0.144464f, -0.177101f, -0.500570f, 0.469427f, 0.296961f, 0.012611f, -0.137504f, -0.042674f, -0.063594f, -0.102122f, 1.144828f, 0.319683f, -0.193303f, 0.133887f, 0.378260f, -0.030276f, -0.922576f, -0.511968f, -0.353091f, 0.572779f, 0.083881f, 0.052419f, -0.111908f, -0.399324f, 0.063145f, 0.046308f, -0.176096f, -0.314802f, 0.183951f, -0.044728f, 0.126431f, 0.143901f, 0.051379f, -0.039389f, -0.480647f, 0.515955f, -0.496439f, 0.264429f, -0.090645f, -0.483297f, 0.581899f, 0.488181f, -0.087811f, 0.027482f, -0.188332f, -0.133163f, -0.251539f, 0.265986f, 0.374309f, -0.042406f, 1.057876f, 0.158710f, 0.226255f, -0.056002f, -0.018783f, 1.841918f, 2.631704f, 2.736542f, 1.602948f, 1.158209f, -1.199516f, -0.879225f, -0.193880f, -2.716980f, 3.635460f, -11.289404f, -1.316371f, -6.542269f, -0.371330f, -3.136073f, -10.072907f, -2.654186f, -5.357495f, -2.727568f, -4.539304f, 1.709591f, -6.288550f, 1.358842f, 0.897285f, -0.974020f, -5.231483f, 3.138648f, -3.780566f, -1.567806f, -5.111100f, -0.385885f, -0.579204f, -5.207123f, 10.563965f, -2.384415f, -0.454682f, -4.578843f, -3.273824f, 7.461009f, 6.906676f, 0.341497f, -4.422839f, -0.407954f, 0.604668f, -2.450084f, -1.588248f, -3.162679f, 0.353252f, -3.173195f, -6.861038f, 0.895679f, 0.305000f, -0.472616f, 1.372642f, -2.849573f, -1.408409f, -2.002622f, -1.574786f, -4.665843f, -1.137347f, -5.193415f, 0.588737f, 1.439745f, -1.606150f, -0.770147f, -3.406095f, 1.548494f, -0.413083f, 0.083000f, -0.219986f, 2.291937f, -0.986849f, 1.148944f, -0.144773f, -0.394661f, 0.840931f, -0.168822f, -0.425566f, -1.891793f, 0.293974f, 0.187227f, 0.584412f, -1.666871f, -0.327656f, -0.624932f, -2.150273f, -0.071158f, 0.274609f, 5.313106f, -1.222766f, -2.617324f, 0.521464f, 1.647630f, -2.230747f, -2.485359f, -0.402358f, -1.419609f, 4.090405f, 2.772350f, -1.293233f, 1.816339f, -0.430890f, -0.905798f, 0.337488f, 0.659760f, 5.349630f, 0.304293f, 0.349017f, -1.896718f, 1.783813f, -2.503939f, -1.816987f, -0.407877f, -0.671383f, 0.521328f, -1.310579f, -1.094619f, -1.757921f, -2.090261f, 2.992608f, 1.316463f, -1.586168f, -0.590830f, -0.732625f, 1.922954f, 1.154836f, 1.866419f, -1.769810f, 3.021489f, -0.223036f, 1.223017f, -2.547900f, -0.088273f, -0.633700f, -0.281926f, 0.028075f, 0.725805f, -2.576152f, -1.344708f, 0.349583f, -2.548908f, -2.340270f, 0.416156f, 0.407115f, 4.974762f, -0.668681f, 1.689892f, -2.944250f, -2.138011f, -3.122500f, 0.410411f, -0.945744f, 0.998131f, -4.104063f, 2.751170f, 0.240177f, -3.985766f, -1.207495f, 1.135008f, -1.507073f, 1.413822f, 1.694964f, 2.488562f, -2.665622f, 0.006639f, 2.159540f, -0.079012f, -1.565702f, 0.027193f, 0.166967f, 0.142125f, 0.410929f, 0.481634f, 0.083860f, -0.127240f, 0.095272f, -0.824747f, 0.047315f, 0.041864f, -0.531044f, 0.353716f, -0.371492f, -0.104387f, 0.701648f, -0.060204f, -0.240212f, 0.049638f, 0.169976f, -0.174400f, -0.054902f, 0.079749f, 0.231240f, -0.684906f, 0.244986f, 0.034412f, -0.262351f, 0.260475f, 